{"selected_features": ["Velocity", "Acceleration", "XFlips", "YFlips", "TotalDistance", "MovementTimeSpan", "XVelocity", "YVelocity", "XAxisDistance"], "trees": [{"nodeid": 0, "depth": 0, "split": "f5", "split_condition": 179.589996, "yes": 1, "no": 2, "missing": 2, "children": [{"nodeid": 1, "depth": 1, "split": "f8", "split_condition": 24009.9238, "yes": 3, "no": 4, "missing": 4, "children": [{"nodeid": 3, "depth": 2, "split": "f1", "split_condition": 50.4747086, "yes": 7, "no": 8, "missing": 8, "children": [{"nodeid": 7, "depth": 3, "split": "f2", "split_condition": 50.0213585, "yes": 11, "no": 12, "missing": 12, "children": [{"nodeid": 11, "leaf": -0.153305426}, {"nodeid": 12, "leaf": 0.152195111}]}, {"nodeid": 8, "leaf": 0.157377049}]}, {"nodeid": 4, "leaf": 0.158920735}]}, {"nodeid": 2, "depth": 1, "split": "f5", "split_condition": 180.986191, "yes": 5, "no": 6, "missing": 6, "children": [{"nodeid": 5, "depth": 2, "split": "f0", "split_condition": 191.5, "yes": 9, "no": 10, "missing": 10, "children": [{"nodeid": 9, "leaf": -0.0799999982}, {"nodeid": 10, "leaf": 0.129523814}]}, {"nodeid": 6, "leaf": 0.159652174}]}]}, {"nodeid": 0, "depth": 0, "split": "f5", "split_condition": 179.589996, "yes": 1, "no": 2, "missing": 2, "children": [{"nodeid": 1, "depth": 1, "split": "f1", "split_condition": 49.9500008, "yes": 3, "no": 4, "missing": 4, "children": [{"nodeid": 3, "depth": 2, "split": "f8", "split_condition": 24009.9238, "yes": 7, "no": 8, "missing": 8, "children": [{"nodeid": 7, "depth": 3, "split": "f3", "split_condition": 30.1280766, "yes": 13, "no": 14, "missing": 14, "children": [{"nodeid": 13, "leaf": -0.141605869}, {"nodeid": 14, "leaf": 0.151352093}]}, {"nodeid": 8, "leaf": 0.1457486}]}, {"nodeid": 4, "depth": 2, "split": "f1", "split_condition": 50.4747086, "yes": 9, "no": 10, "missing": 10, "children": [{"nodeid": 9, "depth": 3, "split": "f5", "split_condition": 98.0299988, "yes": 15, "no": 16, "missing": 16, "children": [{"nodeid": 15, "leaf": -0.0568553731}, {"nodeid": 16, "leaf": 0.0937675089}]}, {"nodeid": 10, "leaf": 0.147281229}]}]}, {"nodeid": 2, "depth": 1, "split": "f5", "split_condition": 180.986191, "yes": 5, "no": 6, "missing": 6, "children": [{"nodeid": 5, "depth": 2, "split": "f7", "split_condition": 76.3399963, "yes": 11, "no": 12, "missing": 12, "children": [{"nodeid": 11, "leaf": -0.075816378}, {"nodeid": 12, "leaf": 0.1209483}]}, {"nodeid": 6, "leaf": 0.147871524}]}]}, {"nodeid": 0, "depth": 0, "split": "f5", "split_condition": 179.589996, "yes": 1, "no": 2, "missing": 2, "children": [{"nodeid": 1, "depth": 1, "split": "f8", "split_condition": 24009.9238, "yes": 3, "no": 4, "missing": 4, "children": [{"nodeid": 3, "depth": 2, "split": "f1", "split_condition": 49.9500008, "yes": 7, "no": 8, "missing": 8, "children": [{"nodeid": 7, "depth": 3, "split": "f2", "split_condition": 50.0213585, "yes": 11, "no": 12, "missing": 12, "children": [{"nodeid": 11, "leaf": -0.132431045}, {"nodeid": 12, "leaf": 0.141470432}]}, {"nodeid": 8, "depth": 3, "split": "f1", "split_condition": 50.4747086, "yes": 13, "no": 14, "missing": 14, "children": [{"nodeid": 13, "leaf": 0.00617859745}, {"nodeid": 14, "leaf": 0.13667804}]}]}, {"nodeid": 4, "leaf": 0.138016388}]}, {"nodeid": 2, "depth": 1, "split": "f5", "split_condition": 180.986191, "yes": 5, "no": 6, "missing": 6, "children": [{"nodeid": 5, "depth": 2, "split": "f0", "split_condition": 191.5, "yes": 9, "no": 10, "missing": 10, "children": [{"nodeid": 9, "leaf": -0.0543388389}, {"nodeid": 10, "leaf": 0.114829868}]}, {"nodeid": 6, "leaf": 0.138512775}]}]}, {"nodeid": 0, "depth": 0, "split": "f5", "split_condition": 179.589996, "yes": 1, "no": 2, "missing": 2, "children": [{"nodeid": 1, "depth": 1, "split": "f1", "split_condition": 49.9500008, "yes": 3, "no": 4, "missing": 4, "children": [{"nodeid": 3, "depth": 2, "split": "f4", "split_condition": 40575.5273, "yes": 7, "no": 8, "missing": 8, "children": [{"nodeid": 7, "depth": 3, "split": "f3", "split_condition": 30.1280766, "yes": 13, "no": 14, "missing": 14, "children": [{"nodeid": 13, "leaf": -0.124866433}, {"nodeid": 14, "leaf": 0.139592841}]}, {"nodeid": 8, "leaf": 0.130591631}]}, {"nodeid": 4, "depth": 2, "split": "f1", "split_condition": 50.4747086, "yes": 9, "no": 10, "missing": 10, "children": [{"nodeid": 9, "depth": 3, "split": "f5", "split_condition": 98.0299988, "yes": 15, "no": 16, "missing": 16, "children": [{"nodeid": 15, "leaf": -0.0545809641}, {"nodeid": 16, "leaf": 0.0815790445}]}, {"nodeid": 10, "leaf": 0.130447254}]}]}, {"nodeid": 2, "depth": 1, "split": "f5", "split_condition": 180.986191, "yes": 5, "no": 6, "missing": 6, "children": [{"nodeid": 5, "depth": 2, "split": "f0", "split_condition": 158.520004, "yes": 11, "no": 12, "missing": 12, "children": [{"nodeid": 11, "leaf": -0.0800704435}, {"nodeid": 12, "leaf": 0.0993219465}]}, {"nodeid": 6, "leaf": 0.1309084}]}]}, {"nodeid": 0, "depth": 0, "split": "f5", "split_condition": 179.589996, "yes": 1, "no": 2, "missing": 2, "children": [{"nodeid": 1, "depth": 1, "split": "f1", "split_condition": 49.9500008, "yes": 3, "no": 4, "missing": 4, "children": [{"nodeid": 3, "depth": 2, "split": "f8", "split_condition": 24009.9238, "yes": 7, "no": 8, "missing": 8, "children": [{"nodeid": 7, "depth": 3, "split": "f2", "split_condition": 50.0213585, "yes": 13, "no": 14, "missing": 14, "children": [{"nodeid": 13, "leaf": -0.119234018}, {"nodeid": 14, "leaf": 0.131849185}]}, {"nodeid": 8, "leaf": 0.123661608}]}, {"nodeid": 4, "depth": 2, "split": "f1", "split_condition": 50.4747086, "yes": 9, "no": 10, "missing": 10, "children": [{"nodeid": 9, "depth": 3, "split": "f5", "split_condition": 98.0299988, "yes": 15, "no": 16, "missing": 16, "children": [{"nodeid": 15, "leaf": -0.0521751046}, {"nodeid": 16, "leaf": 0.0833497867}]}, {"nodeid": 10, "leaf": 0.124170221}]}]}, {"nodeid": 2, "depth": 1, "split": "f5", "split_condition": 180.986191, "yes": 5, "no": 6, "missing": 6, "children": [{"nodeid": 5, "depth": 2, "split": "f7", "split_condition": 76.3399963, "yes": 11, "no": 12, "missing": 12, "children": [{"nodeid": 11, "leaf": -0.0624511801}, {"nodeid": 12, "leaf": 0.106287271}]}, {"nodeid": 6, "leaf": 0.124632232}]}]}, {"nodeid": 0, "depth": 0, "split": "f5", "split_condition": 179.589996, "yes": 1, "no": 2, "missing": 2, "children": [{"nodeid": 1, "depth": 1, "split": "f8", "split_condition": 24009.9238, "yes": 3, "no": 4, "missing": 4, "children": [{"nodeid": 3, "depth": 2, "split": "f1", "split_condition": 50.4747086, "yes": 7, "no": 8, "missing": 8, "children": [{"nodeid": 7, "depth": 3, "split": "f3", "split_condition": 30.1280766, "yes": 11, "no": 12, "missing": 12, "children": [{"nodeid": 11, "leaf": -0.113390602}, {"nodeid": 12, "leaf": 0.135883823}]}, {"nodeid": 8, "leaf": 0.117688328}]}, {"nodeid": 4, "leaf": 0.119180828}]}, {"nodeid": 2, "depth": 1, "split": "f5", "split_condition": 180.986191, "yes": 5, "no": 6, "missing": 6, "children": [{"nodeid": 5, "depth": 2, "split": "f7", "split_condition": 76.3399963, "yes": 9, "no": 10, "missing": 10, "children": [{"nodeid": 9, "leaf": -0.0595826767}, {"nodeid": 10, "leaf": 0.10358867}]}, {"nodeid": 6, "leaf": 0.119370021}]}]}, {"nodeid": 0, "depth": 0, "split": "f5", "split_condition": 179.589996, "yes": 1, "no": 2, "missing": 2, "children": [{"nodeid": 1, "depth": 1, "split": "f1", "split_condition": 49.9500008, "yes": 3, "no": 4, "missing": 4, "children": [{"nodeid": 3, "depth": 2, "split": "f8", "split_condition": 24009.9238, "yes": 7, "no": 8, "missing": 8, "children": [{"nodeid": 7, "depth": 3, "split": "f2", "split_condition": 50.0213585, "yes": 13, "no": 14, "missing": 14, "children": [{"nodeid": 13, "leaf": -0.109205998}, {"nodeid": 14, "leaf": 0.127613232}]}, {"nodeid": 8, "leaf": 0.113698654}]}, {"nodeid": 4, "depth": 2, "split": "f1", "split_condition": 50.4747086, "yes": 9, "no": 10, "missing": 10, "children": [{"nodeid": 9, "depth": 3, "split": "f5", "split_condition": 90.2300034, "yes": 15, "no": 16, "missing": 16, "children": [{"nodeid": 15, "leaf": -0.0376880467}, {"nodeid": 16, "leaf": 0.0788249969}]}, {"nodeid": 10, "leaf": 0.114468388}]}]}, {"nodeid": 2, "depth": 1, "split": "f5", "split_condition": 180.986191, "yes": 5, "no": 6, "missing": 6, "children": [{"nodeid": 5, "depth": 2, "split": "f7", "split_condition": 70.3796234, "yes": 11, "no": 12, "missing": 12, "children": [{"nodeid": 11, "leaf": -0.0738403648}, {"nodeid": 12, "leaf": 0.0924096629}]}, {"nodeid": 6, "leaf": 0.114905596}]}]}, {"nodeid": 0, "depth": 0, "split": "f5", "split_condition": 179.589996, "yes": 1, "no": 2, "missing": 2, "children": [{"nodeid": 1, "depth": 1, "split": "f1", "split_condition": 50.4747086, "yes": 3, "no": 4, "missing": 4, "children": [{"nodeid": 3, "depth": 2, "split": "f3", "split_condition": 30.1280766, "yes": 7, "no": 8, "missing": 8, "children": [{"nodeid": 7, "depth": 3, "split": "f2", "split_condition": 50.0213585, "yes": 11, "no": 12, "missing": 12, "children": [{"nodeid": 11, "leaf": -0.105042495}, {"nodeid": 12, "leaf": 0.121545121}]}, {"nodeid": 8, "leaf": 0.119723171}]}, {"nodeid": 4, "leaf": 0.110621318}]}, {"nodeid": 2, "depth": 1, "split": "f5", "split_condition": 180.986191, "yes": 5, "no": 6, "missing": 6, "children": [{"nodeid": 5, "depth": 2, "split": "f7", "split_condition": 76.3399963, "yes": 9, "no": 10, "missing": 10, "children": [{"nodeid": 9, "leaf": -0.055928614}, {"nodeid": 10, "leaf": 0.0947797149}]}, {"nodeid": 6, "leaf": 0.111083046}]}]}, {"nodeid": 0, "depth": 0, "split": "f5", "split_condition": 179.589996, "yes": 1, "no": 2, "missing": 2, "children": [{"nodeid": 1, "depth": 1, "split": "f8", "split_condition": 24009.9238, "yes": 3, "no": 4, "missing": 4, "children": [{"nodeid": 3, "depth": 2, "split": "f1", "split_condition": 50.4747086, "yes": 7, "no": 8, "missing": 8, "children": [{"nodeid": 7, "depth": 3, "split": "f3", "split_condition": 30.1280766, "yes": 11, "no": 12, "missing": 12, "children": [{"nodeid": 11, "leaf": -0.101524182}, {"nodeid": 12, "leaf": 0.125650778}]}, {"nodeid": 8, "leaf": 0.106069833}]}, {"nodeid": 4, "leaf": 0.108056925}]}, {"nodeid": 2, "depth": 1, "split": "f5", "split_condition": 180.986191, "yes": 5, "no": 6, "missing": 6, "children": [{"nodeid": 5, "depth": 2, "split": "f7", "split_condition": 70.3796234, "yes": 9, "no": 10, "missing": 10, "children": [{"nodeid": 9, "leaf": -0.0748242363}, {"nodeid": 10, "leaf": 0.0853933692}]}, {"nodeid": 6, "leaf": 0.107777819}]}]}, {"nodeid": 0, "depth": 0, "split": "f5", "split_condition": 179.589996, "yes": 1, "no": 2, "missing": 2, "children": [{"nodeid": 1, "depth": 1, "split": "f8", "split_condition": 24009.9238, "yes": 3, "no": 4, "missing": 4, "children": [{"nodeid": 3, "depth": 2, "split": "f2", "split_condition": 50.0213585, "yes": 7, "no": 8, "missing": 8, "children": [{"nodeid": 7, "depth": 3, "split": "f3", "split_condition": 30.1280766, "yes": 11, "no": 12, "missing": 12, "children": [{"nodeid": 11, "leaf": -0.0983320475}, {"nodeid": 12, "leaf": 0.119416453}]}, {"nodeid": 8, "leaf": 0.111295849}]}, {"nodeid": 4, "leaf": 0.105111562}]}, {"nodeid": 2, "depth": 1, "split": "f5", "split_condition": 180.986191, "yes": 5, "no": 6, "missing": 6, "children": [{"nodeid": 5, "depth": 2, "split": "f7", "split_condition": 70.3796234, "yes": 9, "no": 10, "missing": 10, "children": [{"nodeid": 9, "leaf": -0.0721967146}, {"nodeid": 10, "leaf": 0.078180179}]}, {"nodeid": 6, "leaf": 0.104898423}]}]}, {"nodeid": 0, "depth": 0, "split": "f5", "split_condition": 179.589996, "yes": 1, "no": 2, "missing": 2, "children": [{"nodeid": 1, "depth": 1, "split": "f8", "split_condition": 24009.9238, "yes": 3, "no": 4, "missing": 4, "children": [{"nodeid": 3, "depth": 2, "split": "f2", "split_condition": 50.0213585, "yes": 7, "no": 8, "missing": 8, "children": [{"nodeid": 7, "depth": 3, "split": "f3", "split_condition": 30.1280766, "yes": 11, "no": 12, "missing": 12, "children": [{"nodeid": 11, "leaf": -0.0951941311}, {"nodeid": 12, "leaf": 0.114097707}]}, {"nodeid": 8, "leaf": 0.107680745}]}, {"nodeid": 4, "leaf": 0.102374867}]}, {"nodeid": 2, "depth": 1, "split": "f5", "split_condition": 180.986191, "yes": 5, "no": 6, "missing": 6, "children": [{"nodeid": 5, "depth": 2, "split": "f7", "split_condition": 76.3399963, "yes": 9, "no": 10, "missing": 10, "children": [{"nodeid": 9, "leaf": -0.0570463948}, {"nodeid": 10, "leaf": 0.0837367773}]}, {"nodeid": 6, "leaf": 0.102377802}]}]}, {"nodeid": 0, "depth": 0, "split": "f5", "split_condition": 179.589996, "yes": 1, "no": 2, "missing": 2, "children": [{"nodeid": 1, "depth": 1, "split": "f8", "split_condition": 24009.9238, "yes": 3, "no": 4, "missing": 4, "children": [{"nodeid": 3, "depth": 2, "split": "f1", "split_condition": 50.4747086, "yes": 7, "no": 8, "missing": 8, "children": [{"nodeid": 7, "depth": 3, "split": "f2", "split_condition": 50.0213585, "yes": 11, "no": 12, "missing": 12, "children": [{"nodeid": 11, "leaf": -0.0937049836}, {"nodeid": 12, "leaf": 0.110114999}]}, {"nodeid": 8, "leaf": 0.100554429}]}, {"nodeid": 4, "leaf": 0.100181632}]}, {"nodeid": 2, "depth": 1, "split": "f5", "split_condition": 180.986191, "yes": 5, "no": 6, "missing": 6, "children": [{"nodeid": 5, "depth": 2, "split": "f7", "split_condition": 76.3399963, "yes": 9, "no": 10, "missing": 10, "children": [{"nodeid": 9, "leaf": -0.0492953099}, {"nodeid": 10, "leaf": 0.0842059702}]}, {"nodeid": 6, "leaf": 0.10015472}]}]}, {"nodeid": 0, "depth": 0, "split": "f5", "split_condition": 179.589996, "yes": 1, "no": 2, "missing": 2, "children": [{"nodeid": 1, "depth": 1, "split": "f1", "split_condition": 49.9500008, "yes": 3, "no": 4, "missing": 4, "children": [{"nodeid": 3, "depth": 2, "split": "f4", "split_condition": 40575.5273, "yes": 7, "no": 8, "missing": 8, "children": [{"nodeid": 7, "depth": 3, "split": "f2", "split_condition": 50.0213585, "yes": 13, "no": 14, "missing": 14, "children": [{"nodeid": 13, "leaf": -0.0922280028}, {"nodeid": 14, "leaf": 0.104221687}]}, {"nodeid": 8, "leaf": 0.0998944342}]}, {"nodeid": 4, "depth": 2, "split": "f1", "split_condition": 50.4747086, "yes": 9, "no": 10, "missing": 10, "children": [{"nodeid": 9, "depth": 3, "split": "f5", "split_condition": 98.0299988, "yes": 15, "no": 16, "missing": 16, "children": [{"nodeid": 15, "leaf": -0.0338148884}, {"nodeid": 16, "leaf": 0.0678275824}]}, {"nodeid": 10, "leaf": 0.0985231176}]}]}, {"nodeid": 2, "depth": 1, "split": "f5", "split_condition": 180.986191, "yes": 5, "no": 6, "missing": 6, "children": [{"nodeid": 5, "depth": 2, "split": "f7", "split_condition": 70.3796234, "yes": 11, "no": 12, "missing": 12, "children": [{"nodeid": 11, "leaf": -0.0611937493}, {"nodeid": 12, "leaf": 0.0722827241}]}, {"nodeid": 6, "leaf": 0.0981925353}]}]}, {"nodeid": 0, "depth": 0, "split": "f5", "split_condition": 179.589996, "yes": 1, "no": 2, "missing": 2, "children": [{"nodeid": 1, "depth": 1, "split": "f1", "split_condition": 49.9500008, "yes": 3, "no": 4, "missing": 4, "children": [{"nodeid": 3, "depth": 2, "split": "f3", "split_condition": 30.1280766, "yes": 7, "no": 8, "missing": 8, "children": [{"nodeid": 7, "depth": 3, "split": "f2", "split_condition": 50.0213585, "yes": 13, "no": 14, "missing": 14, "children": [{"nodeid": 13, "leaf": -0.0894800201}, {"nodeid": 14, "leaf": 0.103991039}]}, {"nodeid": 8, "leaf": 0.105392456}]}, {"nodeid": 4, "depth": 2, "split": "f1", "split_condition": 50.4747086, "yes": 9, "no": 10, "missing": 10, "children": [{"nodeid": 9, "depth": 3, "split": "f5", "split_condition": 98.0299988, "yes": 15, "no": 16, "missing": 16, "children": [{"nodeid": 15, "leaf": -0.0325210057}, {"nodeid": 16, "leaf": 0.0657471046}]}, {"nodeid": 10, "leaf": 0.0967086405}]}]}, {"nodeid": 2, "depth": 1, "split": "f5", "split_condition": 180.986191, "yes": 5, "no": 6, "missing": 6, "children": [{"nodeid": 5, "depth": 2, "split": "f7", "split_condition": 76.3399963, "yes": 11, "no": 12, "missing": 12, "children": [{"nodeid": 11, "leaf": -0.0518246591}, {"nodeid": 12, "leaf": 0.0786863863}]}, {"nodeid": 6, "leaf": 0.0964380801}]}]}, {"nodeid": 0, "depth": 0, "split": "f5", "split_condition": 179.589996, "yes": 1, "no": 2, "missing": 2, "children": [{"nodeid": 1, "depth": 1, "split": "f1", "split_condition": 49.9500008, "yes": 3, "no": 4, "missing": 4, "children": [{"nodeid": 3, "depth": 2, "split": "f8", "split_condition": 24009.9238, "yes": 7, "no": 8, "missing": 8, "children": [{"nodeid": 7, "depth": 3, "split": "f2", "split_condition": 50.0213585, "yes": 13, "no": 14, "missing": 14, "children": [{"nodeid": 13, "leaf": -0.0863539204}, {"nodeid": 14, "leaf": 0.100515723}]}, {"nodeid": 8, "leaf": 0.0947895721}]}, {"nodeid": 4, "depth": 2, "split": "f1", "split_condition": 50.4747086, "yes": 9, "no": 10, "missing": 10, "children": [{"nodeid": 9, "depth": 3, "split": "f4", "split_condition": 27220.8203, "yes": 15, "no": 16, "missing": 16, "children": [{"nodeid": 15, "leaf": -0.00598127954}, {"nodeid": 16, "leaf": 0.0435431376}]}, {"nodeid": 10, "leaf": 0.0950232297}]}]}, {"nodeid": 2, "depth": 1, "split": "f5", "split_condition": 180.986191, "yes": 5, "no": 6, "missing": 6, "children": [{"nodeid": 5, "depth": 2, "split": "f7", "split_condition": 70.3796234, "yes": 11, "no": 12, "missing": 12, "children": [{"nodeid": 11, "leaf": -0.0628354847}, {"nodeid": 12, "leaf": 0.0678918958}]}, {"nodeid": 6, "leaf": 0.0948775932}]}]}, {"nodeid": 0, "depth": 0, "split": "f5", "split_condition": 179.589996, "yes": 1, "no": 2, "missing": 2, "children": [{"nodeid": 1, "depth": 1, "split": "f8", "split_condition": 24009.9238, "yes": 3, "no": 4, "missing": 4, "children": [{"nodeid": 3, "depth": 2, "split": "f3", "split_condition": 30.1280766, "yes": 7, "no": 8, "missing": 8, "children": [{"nodeid": 7, "depth": 3, "split": "f2", "split_condition": 50.0213585, "yes": 11, "no": 12, "missing": 12, "children": [{"nodeid": 11, "leaf": -0.0848916396}, {"nodeid": 12, "leaf": 0.097205542}]}, {"nodeid": 8, "leaf": 0.105055824}]}, {"nodeid": 4, "leaf": 0.0934846476}]}, {"nodeid": 2, "depth": 1, "split": "f5", "split_condition": 180.986191, "yes": 5, "no": 6, "missing": 6, "children": [{"nodeid": 5, "depth": 2, "split": "f0", "split_condition": 191.5, "yes": 9, "no": 10, "missing": 10, "children": [{"nodeid": 9, "leaf": -0.0441212915}, {"nodeid": 10, "leaf": 0.072440654}]}, {"nodeid": 6, "leaf": 0.0934752747}]}]}, {"nodeid": 0, "depth": 0, "split": "f5", "split_condition": 179.589996, "yes": 1, "no": 2, "missing": 2, "children": [{"nodeid": 1, "depth": 1, "split": "f8", "split_condition": 24009.9238, "yes": 3, "no": 4, "missing": 4, "children": [{"nodeid": 3, "depth": 2, "split": "f3", "split_condition": 30.1280766, "yes": 7, "no": 8, "missing": 8, "children": [{"nodeid": 7, "depth": 3, "split": "f2", "split_condition": 50.0213585, "yes": 11, "no": 12, "missing": 12, "children": [{"nodeid": 11, "leaf": -0.0823448226}, {"nodeid": 12, "leaf": 0.0955349058}]}, {"nodeid": 8, "leaf": 0.1020841}]}, {"nodeid": 4, "leaf": 0.0922463462}]}, {"nodeid": 2, "depth": 1, "split": "f5", "split_condition": 180.986191, "yes": 5, "no": 6, "missing": 6, "children": [{"nodeid": 5, "depth": 2, "split": "f7", "split_condition": 70.3796234, "yes": 9, "no": 10, "missing": 10, "children": [{"nodeid": 9, "leaf": -0.0596994534}, {"nodeid": 10, "leaf": 0.0642686263}]}, {"nodeid": 6, "leaf": 0.0922148377}]}]}, {"nodeid": 0, "depth": 0, "split": "f5", "split_condition": 179.589996, "yes": 1, "no": 2, "missing": 2, "children": [{"nodeid": 1, "depth": 1, "split": "f1", "split_condition": 49.9500008, "yes": 3, "no": 4, "missing": 4, "children": [{"nodeid": 3, "depth": 2, "split": "f3", "split_condition": 30.1280766, "yes": 7, "no": 8, "missing": 8, "children": [{"nodeid": 7, "depth": 3, "split": "f2", "split_condition": 50.0213585, "yes": 13, "no": 14, "missing": 14, "children": [{"nodeid": 13, "leaf": -0.0819854513}, {"nodeid": 14, "leaf": 0.0934774727}]}, {"nodeid": 8, "leaf": 0.0994027108}]}, {"nodeid": 4, "depth": 2, "split": "f1", "split_condition": 50.4747086, "yes": 9, "no": 10, "missing": 10, "children": [{"nodeid": 9, "leaf": 0.0113974083}, {"nodeid": 10, "leaf": 0.0921335518}]}]}, {"nodeid": 2, "depth": 1, "split": "f5", "split_condition": 180.986191, "yes": 5, "no": 6, "missing": 6, "children": [{"nodeid": 5, "depth": 2, "split": "f7", "split_condition": 76.3399963, "yes": 11, "no": 12, "missing": 12, "children": [{"nodeid": 11, "leaf": -0.0466214158}, {"nodeid": 12, "leaf": 0.0704136193}]}, {"nodeid": 6, "leaf": 0.0910730734}]}]}, {"nodeid": 0, "depth": 0, "split": "f5", "split_condition": 179.589996, "yes": 1, "no": 2, "missing": 2, "children": [{"nodeid": 1, "depth": 1, "split": "f8", "split_condition": 24009.9238, "yes": 3, "no": 4, "missing": 4, "children": [{"nodeid": 3, "depth": 2, "split": "f3", "split_condition": 30.1280766, "yes": 7, "no": 8, "missing": 8, "children": [{"nodeid": 7, "depth": 3, "split": "f2", "split_condition": 50.0213585, "yes": 11, "no": 12, "missing": 12, "children": [{"nodeid": 11, "leaf": -0.0795375481}, {"nodeid": 12, "leaf": 0.0911131203}]}, {"nodeid": 8, "leaf": 0.0977097079}]}, {"nodeid": 4, "leaf": 0.0903036445}]}, {"nodeid": 2, "depth": 1, "split": "f5", "split_condition": 180.986191, "yes": 5, "no": 6, "missing": 6, "children": [{"nodeid": 5, "depth": 2, "split": "f7", "split_condition": 76.3399963, "yes": 9, "no": 10, "missing": 10, "children": [{"nodeid": 9, "leaf": -0.0401122272}, {"nodeid": 10, "leaf": 0.0674875528}]}, {"nodeid": 6, "leaf": 0.0900479183}]}]}, {"nodeid": 0, "depth": 0, "split": "f5", "split_condition": 179.589996, "yes": 1, "no": 2, "missing": 2, "children": [{"nodeid": 1, "depth": 1, "split": "f1", "split_condition": 49.9500008, "yes": 3, "no": 4, "missing": 4, "children": [{"nodeid": 3, "depth": 2, "split": "f4", "split_condition": 40575.5273, "yes": 7, "no": 8, "missing": 8, "children": [{"nodeid": 7, "depth": 3, "split": "f3", "split_condition": 30.1280766, "yes": 13, "no": 14, "missing": 14, "children": [{"nodeid": 13, "leaf": -0.0790785328}, {"nodeid": 14, "leaf": 0.100379236}]}, {"nodeid": 8, "leaf": 0.0945249274}]}, {"nodeid": 4, "depth": 2, "split": "f1", "split_condition": 50.4747086, "yes": 9, "no": 10, "missing": 10, "children": [{"nodeid": 9, "depth": 3, "split": "f4", "split_condition": 28597.1797, "yes": 15, "no": 16, "missing": 16, "children": [{"nodeid": 15, "leaf": -0.0138801988}, {"nodeid": 16, "leaf": 0.0460623056}]}, {"nodeid": 10, "leaf": 0.0903750509}]}]}, {"nodeid": 2, "depth": 1, "split": "f5", "split_condition": 180.986191, "yes": 5, "no": 6, "missing": 6, "children": [{"nodeid": 5, "depth": 2, "split": "f7", "split_condition": 76.3399963, "yes": 11, "no": 12, "missing": 12, "children": [{"nodeid": 11, "leaf": -0.0385416411}, {"nodeid": 12, "leaf": 0.0680315495}]}, {"nodeid": 6, "leaf": 0.0891087204}]}]}, {"nodeid": 0, "depth": 0, "split": "f5", "split_condition": 179.029999, "yes": 1, "no": 2, "missing": 2, "children": [{"nodeid": 1, "depth": 1, "split": "f1", "split_condition": 49.9500008, "yes": 3, "no": 4, "missing": 4, "children": [{"nodeid": 3, "depth": 2, "split": "f3", "split_condition": 30.1280766, "yes": 7, "no": 8, "missing": 8, "children": [{"nodeid": 7, "depth": 3, "split": "f2", "split_condition": 50.0213585, "yes": 13, "no": 14, "missing": 14, "children": [{"nodeid": 13, "leaf": -0.0782407522}, {"nodeid": 14, "leaf": 0.0905663446}]}, {"nodeid": 8, "leaf": 0.0938026533}]}, {"nodeid": 4, "depth": 2, "split": "f1", "split_condition": 50.4747086, "yes": 9, "no": 10, "missing": 10, "children": [{"nodeid": 9, "leaf": 0.0172045194}, {"nodeid": 10, "leaf": 0.0894899666}]}]}, {"nodeid": 2, "depth": 1, "split": "f5", "split_condition": 180.986191, "yes": 5, "no": 6, "missing": 6, "children": [{"nodeid": 5, "depth": 2, "split": "f6", "split_condition": 86.8099976, "yes": 11, "no": 12, "missing": 12, "children": [{"nodeid": 11, "leaf": -0.0554383248}, {"nodeid": 12, "depth": 3, "split": "f2", "split_condition": 34.8560867, "yes": 15, "no": 16, "missing": 16, "children": [{"nodeid": 15, "leaf": 0.0165166333}, {"nodeid": 16, "leaf": 0.0877912864}]}]}, {"nodeid": 6, "leaf": 0.0882561728}]}]}, {"nodeid": 0, "depth": 0, "split": "f5", "split_condition": 180.986191, "yes": 1, "no": 2, "missing": 2, "children": [{"nodeid": 1, "depth": 1, "split": "f1", "split_condition": 49.9500008, "yes": 3, "no": 4, "missing": 4, "children": [{"nodeid": 3, "depth": 2, "split": "f4", "split_condition": 40575.5273, "yes": 5, "no": 6, "missing": 6, "children": [{"nodeid": 5, "depth": 3, "split": "f3", "split_condition": 30.1280766, "yes": 9, "no": 10, "missing": 10, "children": [{"nodeid": 9, "leaf": -0.0772729591}, {"nodeid": 10, "leaf": 0.0962542295}]}, {"nodeid": 6, "leaf": 0.0935328677}]}, {"nodeid": 4, "depth": 2, "split": "f1", "split_condition": 50.4747086, "yes": 7, "no": 8, "missing": 8, "children": [{"nodeid": 7, "leaf": 0.024219824}, {"nodeid": 8, "leaf": 0.0890247673}]}]}, {"nodeid": 2, "leaf": 0.0874827281}]}, {"nodeid": 0, "depth": 0, "split": "f5", "split_condition": 179.589996, "yes": 1, "no": 2, "missing": 2, "children": [{"nodeid": 1, "depth": 1, "split": "f8", "split_condition": 24009.9238, "yes": 3, "no": 4, "missing": 4, "children": [{"nodeid": 3, "depth": 2, "split": "f2", "split_condition": 50.0213585, "yes": 7, "no": 8, "missing": 8, "children": [{"nodeid": 7, "depth": 3, "split": "f3", "split_condition": 30.1280766, "yes": 11, "no": 12, "missing": 12, "children": [{"nodeid": 11, "leaf": -0.0744934008}, {"nodeid": 12, "leaf": 0.0941840783}]}, {"nodeid": 8, "leaf": 0.0884508863}]}, {"nodeid": 4, "leaf": 0.0872088969}]}, {"nodeid": 2, "depth": 1, "split": "f5", "split_condition": 180.986191, "yes": 5, "no": 6, "missing": 6, "children": [{"nodeid": 5, "depth": 2, "split": "f7", "split_condition": 70.3796234, "yes": 9, "no": 10, "missing": 10, "children": [{"nodeid": 9, "leaf": -0.0524739213}, {"nodeid": 10, "leaf": 0.070587717}]}, {"nodeid": 6, "leaf": 0.086769022}]}]}, {"nodeid": 0, "depth": 0, "split": "f5", "split_condition": 180.986191, "yes": 1, "no": 2, "missing": 2, "children": [{"nodeid": 1, "depth": 1, "split": "f1", "split_condition": 49.9500008, "yes": 3, "no": 4, "missing": 4, "children": [{"nodeid": 3, "depth": 2, "split": "f4", "split_condition": 40575.5273, "yes": 5, "no": 6, "missing": 6, "children": [{"nodeid": 5, "depth": 3, "split": "f3", "split_condition": 30.1280766, "yes": 9, "no": 10, "missing": 10, "children": [{"nodeid": 9, "leaf": -0.0747223794}, {"nodeid": 10, "leaf": 0.0918204859}]}, {"nodeid": 6, "leaf": 0.0921734348}]}, {"nodeid": 4, "depth": 2, "split": "f1", "split_condition": 50.4747086, "yes": 7, "no": 8, "missing": 8, "children": [{"nodeid": 7, "leaf": 0.0337093212}, {"nodeid": 8, "leaf": 0.0878104791}]}]}, {"nodeid": 2, "leaf": 0.086110726}]}, {"nodeid": 0, "depth": 0, "split": "f5", "split_condition": 179.029999, "yes": 1, "no": 2, "missing": 2, "children": [{"nodeid": 1, "depth": 1, "split": "f1", "split_condition": 49.9500008, "yes": 3, "no": 4, "missing": 4, "children": [{"nodeid": 3, "depth": 2, "split": "f8", "split_condition": 24009.9238, "yes": 7, "no": 8, "missing": 8, "children": [{"nodeid": 7, "depth": 3, "split": "f3", "split_condition": 30.1280766, "yes": 13, "no": 14, "missing": 14, "children": [{"nodeid": 13, "leaf": -0.0732580796}, {"nodeid": 14, "leaf": 0.0901672617}]}, {"nodeid": 8, "leaf": 0.0851385072}]}, {"nodeid": 4, "depth": 2, "split": "f5", "split_condition": 61.0699997, "yes": 9, "no": 10, "missing": 10, "children": [{"nodeid": 9, "leaf": 0.0192094147}, {"nodeid": 10, "leaf": 0.0866706818}]}]}, {"nodeid": 2, "depth": 1, "split": "f5", "split_condition": 180.986191, "yes": 5, "no": 6, "missing": 6, "children": [{"nodeid": 5, "depth": 2, "split": "f0", "split_condition": 220.941116, "yes": 11, "no": 12, "missing": 12, "children": [{"nodeid": 11, "depth": 3, "split": "f8", "split_condition": 12628.7305, "yes": 15, "no": 16, "missing": 16, "children": [{"nodeid": 15, "leaf": 0.00714168418}, {"nodeid": 16, "leaf": -0.0646617934}]}, {"nodeid": 12, "leaf": 0.0964200273}]}, {"nodeid": 6, "leaf": 0.0855117813}]}]}, {"nodeid": 0, "depth": 0, "split": "f5", "split_condition": 180.986191, "yes": 1, "no": 2, "missing": 2, "children": [{"nodeid": 1, "depth": 1, "split": "f1", "split_condition": 49.9500008, "yes": 3, "no": 4, "missing": 4, "children": [{"nodeid": 3, "depth": 2, "split": "f2", "split_condition": 50.0213585, "yes": 5, "no": 6, "missing": 6, "children": [{"nodeid": 5, "depth": 3, "split": "f3", "split_condition": 30.1280766, "yes": 9, "no": 10, "missing": 10, "children": [{"nodeid": 9, "leaf": -0.0726967975}, {"nodeid": 10, "leaf": 0.0872302204}]}, {"nodeid": 6, "leaf": 0.0881872475}]}, {"nodeid": 4, "depth": 2, "split": "f1", "split_condition": 50.4747086, "yes": 7, "no": 8, "missing": 8, "children": [{"nodeid": 7, "leaf": 0.0157112945}, {"nodeid": 8, "leaf": 0.0863057226}]}]}, {"nodeid": 2, "leaf": 0.0849505961}]}, {"nodeid": 0, "depth": 0, "split": "f5", "split_condition": 179.029999, "yes": 1, "no": 2, "missing": 2, "children": [{"nodeid": 1, "depth": 1, "split": "f1", "split_condition": 49.9500008, "yes": 3, "no": 4, "missing": 4, "children": [{"nodeid": 3, "depth": 2, "split": "f8", "split_condition": 24009.9238, "yes": 7, "no": 8, "missing": 8, "children": [{"nodeid": 7, "depth": 3, "split": "f2", "split_condition": 50.0213585, "yes": 13, "no": 14, "missing": 14, "children": [{"nodeid": 13, "leaf": -0.0708937943}, {"nodeid": 14, "leaf": 0.0881787166}]}, {"nodeid": 8, "leaf": 0.084577471}]}, {"nodeid": 4, "depth": 2, "split": "f1", "split_condition": 50.4747086, "yes": 9, "no": 10, "missing": 10, "children": [{"nodeid": 9, "leaf": 0.0169523768}, {"nodeid": 10, "leaf": 0.0850581229}]}]}, {"nodeid": 2, "depth": 1, "split": "f5", "split_condition": 180.986191, "yes": 5, "no": 6, "missing": 6, "children": [{"nodeid": 5, "depth": 2, "split": "f7", "split_condition": 63.2900009, "yes": 11, "no": 12, "missing": 12, "children": [{"nodeid": 11, "leaf": -0.0507782027}, {"nodeid": 12, "depth": 3, "split": "f6", "split_condition": 133.039993, "yes": 15, "no": 16, "missing": 16, "children": [{"nodeid": 15, "leaf": 0.015333361}, {"nodeid": 16, "leaf": 0.0728250667}]}]}, {"nodeid": 6, "leaf": 0.0844368041}]}]}, {"nodeid": 0, "depth": 0, "split": "f5", "split_condition": 180.986191, "yes": 1, "no": 2, "missing": 2, "children": [{"nodeid": 1, "depth": 1, "split": "f1", "split_condition": 49.9500008, "yes": 3, "no": 4, "missing": 4, "children": [{"nodeid": 3, "depth": 2, "split": "f4", "split_condition": 39997.0195, "yes": 5, "no": 6, "missing": 6, "children": [{"nodeid": 5, "depth": 3, "split": "f2", "split_condition": 50.0213585, "yes": 9, "no": 10, "missing": 10, "children": [{"nodeid": 9, "leaf": -0.0688171163}, {"nodeid": 10, "leaf": 0.0856692195}]}, {"nodeid": 6, "leaf": 0.0880566686}]}, {"nodeid": 4, "depth": 2, "split": "f1", "split_condition": 50.4747086, "yes": 7, "no": 8, "missing": 8, "children": [{"nodeid": 7, "leaf": 0.0111135086}, {"nodeid": 8, "leaf": 0.0847462714}]}]}, {"nodeid": 2, "leaf": 0.0839547366}]}, {"nodeid": 0, "depth": 0, "split": "f5", "split_condition": 180.986191, "yes": 1, "no": 2, "missing": 2, "children": [{"nodeid": 1, "depth": 1, "split": "f4", "split_condition": 39997.0195, "yes": 3, "no": 4, "missing": 4, "children": [{"nodeid": 3, "depth": 2, "split": "f1", "split_condition": 50.4747086, "yes": 5, "no": 6, "missing": 6, "children": [{"nodeid": 5, "depth": 3, "split": "f3", "split_condition": 30.1280766, "yes": 7, "no": 8, "missing": 8, "children": [{"nodeid": 7, "leaf": -0.0681969449}, {"nodeid": 8, "leaf": 0.0896751583}]}, {"nodeid": 6, "leaf": 0.0826161727}]}, {"nodeid": 4, "leaf": 0.0876426697}]}, {"nodeid": 2, "leaf": 0.0835052282}]}, {"nodeid": 0, "depth": 0, "split": "f5", "split_condition": 180.986191, "yes": 1, "no": 2, "missing": 2, "children": [{"nodeid": 1, "depth": 1, "split": "f6", "split_condition": 216.776947, "yes": 3, "no": 4, "missing": 4, "children": [{"nodeid": 3, "depth": 2, "split": "f3", "split_condition": 30.1280766, "yes": 5, "no": 6, "missing": 6, "children": [{"nodeid": 5, "depth": 3, "split": "f0", "split_condition": 363.058655, "yes": 9, "no": 10, "missing": 10, "children": [{"nodeid": 9, "leaf": -0.0764715523}, {"nodeid": 10, "leaf": 0.108732529}]}, {"nodeid": 6, "leaf": 0.0794469938}]}, {"nodeid": 4, "depth": 2, "split": "f5", "split_condition": 78.1999969, "yes": 7, "no": 8, "missing": 8, "children": [{"nodeid": 7, "depth": 3, "split": "f8", "split_condition": 24009.9238, "yes": 11, "no": 12, "missing": 12, "children": [{"nodeid": 11, "leaf": -0.0677730069}, {"nodeid": 12, "leaf": 0.0679053217}]}, {"nodeid": 8, "depth": 3, "split": "f8", "split_condition": 20385.4805, "yes": 13, "no": 14, "missing": 14, "children": [{"nodeid": 13, "leaf": 0.152098387}, {"nodeid": 14, "leaf": 0.0674618408}]}]}]}, {"nodeid": 2, "leaf": 0.0830766857}]}, {"nodeid": 0, "depth": 0, "split": "f5", "split_condition": 179.029999, "yes": 1, "no": 2, "missing": 2, "children": [{"nodeid": 1, "depth": 1, "split": "f6", "split_condition": 216.776947, "yes": 3, "no": 4, "missing": 4, "children": [{"nodeid": 3, "depth": 2, "split": "f1", "split_condition": 49.9500008, "yes": 7, "no": 8, "missing": 8, "children": [{"nodeid": 7, "depth": 3, "split": "f0", "split_condition": 358.869995, "yes": 13, "no": 14, "missing": 14, "children": [{"nodeid": 13, "leaf": -0.0761969909}, {"nodeid": 14, "leaf": 0.0886437744}]}, {"nodeid": 8, "leaf": 0.0739154816}]}, {"nodeid": 4, "depth": 2, "split": "f5", "split_condition": 90.9948578, "yes": 9, "no": 10, "missing": 10, "children": [{"nodeid": 9, "depth": 3, "split": "f1", "split_condition": 50.4747086, "yes": 15, "no": 16, "missing": 16, "children": [{"nodeid": 15, "leaf": -0.0510699973}, {"nodeid": 16, "leaf": 0.0746750385}]}, {"nodeid": 10, "depth": 3, "split": "f8", "split_condition": 21760.8594, "yes": 17, "no": 18, "missing": 18, "children": [{"nodeid": 17, "leaf": 0.167482853}, {"nodeid": 18, "leaf": 0.0709135532}]}]}]}, {"nodeid": 2, "depth": 1, "split": "f5", "split_condition": 180.986191, "yes": 5, "no": 6, "missing": 6, "children": [{"nodeid": 5, "depth": 2, "split": "f0", "split_condition": 220.941116, "yes": 11, "no": 12, "missing": 12, "children": [{"nodeid": 11, "depth": 3, "split": "f2", "split_condition": 26.9810162, "yes": 19, "no": 20, "missing": 20, "children": [{"nodeid": 19, "leaf": -0.000327702088}, {"nodeid": 20, "leaf": -0.0547547378}]}, {"nodeid": 12, "leaf": 0.0953976512}]}, {"nodeid": 6, "leaf": 0.0826945603}]}]}, {"nodeid": 0, "depth": 0, "split": "f5", "split_condition": 179.029999, "yes": 1, "no": 2, "missing": 2, "children": [{"nodeid": 1, "depth": 1, "split": "f7", "split_condition": 132.650879, "yes": 3, "no": 4, "missing": 4, "children": [{"nodeid": 3, "depth": 2, "split": "f0", "split_condition": 333.519989, "yes": 7, "no": 8, "missing": 8, "children": [{"nodeid": 7, "depth": 3, "split": "f3", "split_condition": 30.1280766, "yes": 13, "no": 14, "missing": 14, "children": [{"nodeid": 13, "leaf": -0.076441668}, {"nodeid": 14, "leaf": 0.0731762797}]}, {"nodeid": 8, "leaf": 0.172040656}]}, {"nodeid": 4, "depth": 2, "split": "f5", "split_condition": 90.9948578, "yes": 9, "no": 10, "missing": 10, "children": [{"nodeid": 9, "depth": 3, "split": "f1", "split_condition": 50.4747086, "yes": 15, "no": 16, "missing": 16, "children": [{"nodeid": 15, "leaf": -0.0518981814}, {"nodeid": 16, "leaf": 0.0747649074}]}, {"nodeid": 10, "depth": 3, "split": "f4", "split_condition": 29668.4902, "yes": 17, "no": 18, "missing": 18, "children": [{"nodeid": 17, "leaf": 0.189826414}, {"nodeid": 18, "leaf": 0.0691826493}]}]}]}, {"nodeid": 2, "depth": 1, "split": "f5", "split_condition": 180.986191, "yes": 5, "no": 6, "missing": 6, "children": [{"nodeid": 5, "depth": 2, "split": "f0", "split_condition": 220.941116, "yes": 11, "no": 12, "missing": 12, "children": [{"nodeid": 11, "leaf": -0.0290134326}, {"nodeid": 12, "leaf": 0.0942255184}]}, {"nodeid": 6, "leaf": 0.0823248103}]}]}, {"nodeid": 0, "depth": 0, "split": "f4", "split_condition": 39997.0195, "yes": 1, "no": 2, "missing": 2, "children": [{"nodeid": 1, "depth": 1, "split": "f1", "split_condition": 50.4747086, "yes": 3, "no": 4, "missing": 4, "children": [{"nodeid": 3, "depth": 2, "split": "f3", "split_condition": 30.1280766, "yes": 5, "no": 6, "missing": 6, "children": [{"nodeid": 5, "depth": 3, "split": "f2", "split_condition": 50.0213585, "yes": 7, "no": 8, "missing": 8, "children": [{"nodeid": 7, "leaf": -0.0651671514}, {"nodeid": 8, "leaf": 0.0839157924}]}, {"nodeid": 6, "leaf": 0.0838290602}]}, {"nodeid": 4, "leaf": 0.0819424391}]}, {"nodeid": 2, "leaf": 0.0843107849}]}, {"nodeid": 0, "depth": 0, "split": "f4", "split_condition": 39997.0195, "yes": 1, "no": 2, "missing": 2, "children": [{"nodeid": 1, "depth": 1, "split": "f1", "split_condition": 50.4747086, "yes": 3, "no": 4, "missing": 4, "children": [{"nodeid": 3, "depth": 2, "split": "f2", "split_condition": 50.0213585, "yes": 5, "no": 6, "missing": 6, "children": [{"nodeid": 5, "depth": 3, "split": "f3", "split_condition": 30.1280766, "yes": 7, "no": 8, "missing": 8, "children": [{"nodeid": 7, "leaf": -0.065165557}, {"nodeid": 8, "leaf": 0.0830001459}]}, {"nodeid": 6, "leaf": 0.0831552595}]}, {"nodeid": 4, "leaf": 0.0813722014}]}, {"nodeid": 2, "leaf": 0.0838818029}]}, {"nodeid": 0, "depth": 0, "split": "f4", "split_condition": 39997.0195, "yes": 1, "no": 2, "missing": 2, "children": [{"nodeid": 1, "depth": 1, "split": "f1", "split_condition": 50.4747086, "yes": 3, "no": 4, "missing": 4, "children": [{"nodeid": 3, "depth": 2, "split": "f2", "split_condition": 50.0213585, "yes": 5, "no": 6, "missing": 6, "children": [{"nodeid": 5, "depth": 3, "split": "f5", "split_condition": 180.986191, "yes": 7, "no": 8, "missing": 8, "children": [{"nodeid": 7, "leaf": -0.061137557}, {"nodeid": 8, "leaf": 0.0691463426}]}, {"nodeid": 6, "leaf": 0.081443727}]}, {"nodeid": 4, "leaf": 0.0810220018}]}, {"nodeid": 2, "leaf": 0.0835362598}]}, {"nodeid": 0, "depth": 0, "split": "f5", "split_condition": 179.029999, "yes": 1, "no": 2, "missing": 2, "children": [{"nodeid": 1, "depth": 1, "split": "f6", "split_condition": 216.776947, "yes": 3, "no": 4, "missing": 4, "children": [{"nodeid": 3, "depth": 2, "split": "f1", "split_condition": 49.9500008, "yes": 7, "no": 8, "missing": 8, "children": [{"nodeid": 7, "depth": 3, "split": "f7", "split_condition": 140.463608, "yes": 13, "no": 14, "missing": 14, "children": [{"nodeid": 13, "leaf": -0.0718558356}, {"nodeid": 14, "leaf": 0.0641135499}]}, {"nodeid": 8, "leaf": 0.0679648593}]}, {"nodeid": 4, "depth": 2, "split": "f5", "split_condition": 78.1999969, "yes": 9, "no": 10, "missing": 10, "children": [{"nodeid": 9, "depth": 3, "split": "f2", "split_condition": 50.0213585, "yes": 15, "no": 16, "missing": 16, "children": [{"nodeid": 15, "leaf": -0.0583414175}, {"nodeid": 16, "leaf": 0.0670084208}]}, {"nodeid": 10, "depth": 3, "split": "f4", "split_condition": 29668.4902, "yes": 17, "no": 18, "missing": 18, "children": [{"nodeid": 17, "leaf": 0.181555435}, {"nodeid": 18, "leaf": 0.0626661256}]}]}]}, {"nodeid": 2, "depth": 1, "split": "f5", "split_condition": 180.986191, "yes": 5, "no": 6, "missing": 6, "children": [{"nodeid": 5, "depth": 2, "split": "f0", "split_condition": 220.941116, "yes": 11, "no": 12, "missing": 12, "children": [{"nodeid": 11, "leaf": -0.0269199722}, {"nodeid": 12, "leaf": 0.0917466059}]}, {"nodeid": 6, "leaf": 0.0810295343}]}]}, {"nodeid": 0, "depth": 0, "split": "f8", "split_condition": 24009.9238, "yes": 1, "no": 2, "missing": 2, "children": [{"nodeid": 1, "depth": 1, "split": "f3", "split_condition": 30.1280766, "yes": 3, "no": 4, "missing": 4, "children": [{"nodeid": 3, "depth": 2, "split": "f1", "split_condition": 50.4747086, "yes": 5, "no": 6, "missing": 6, "children": [{"nodeid": 5, "depth": 3, "split": "f2", "split_condition": 50.0213585, "yes": 7, "no": 8, "missing": 8, "children": [{"nodeid": 7, "leaf": -0.0588046908}, {"nodeid": 8, "leaf": 0.0779794902}]}, {"nodeid": 6, "leaf": 0.0773815662}]}, {"nodeid": 4, "leaf": 0.082462959}]}, {"nodeid": 2, "leaf": 0.0814589262}]}, {"nodeid": 0, "depth": 0, "split": "f4", "split_condition": 39997.0195, "yes": 1, "no": 2, "missing": 2, "children": [{"nodeid": 1, "depth": 1, "split": "f1", "split_condition": 50.4747086, "yes": 3, "no": 4, "missing": 4, "children": [{"nodeid": 3, "depth": 2, "split": "f3", "split_condition": 30.1280766, "yes": 5, "no": 6, "missing": 6, "children": [{"nodeid": 5, "depth": 3, "split": "f2", "split_condition": 50.0213585, "yes": 7, "no": 8, "missing": 8, "children": [{"nodeid": 7, "leaf": -0.0601437353}, {"nodeid": 8, "leaf": 0.0768256634}]}, {"nodeid": 6, "leaf": 0.0807345584}]}, {"nodeid": 4, "leaf": 0.0794433504}]}, {"nodeid": 2, "leaf": 0.082538791}]}, {"nodeid": 0, "depth": 0, "split": "f8", "split_condition": 24009.9238, "yes": 1, "no": 2, "missing": 2, "children": [{"nodeid": 1, "depth": 1, "split": "f3", "split_condition": 30.1280766, "yes": 3, "no": 4, "missing": 4, "children": [{"nodeid": 3, "depth": 2, "split": "f1", "split_condition": 50.4747086, "yes": 5, "no": 6, "missing": 6, "children": [{"nodeid": 5, "depth": 3, "split": "f5", "split_condition": 168.130005, "yes": 7, "no": 8, "missing": 8, "children": [{"nodeid": 7, "leaf": -0.0613764599}, {"nodeid": 8, "leaf": 0.015899051}]}, {"nodeid": 6, "leaf": 0.0755827874}]}, {"nodeid": 4, "leaf": 0.0811380073}]}, {"nodeid": 2, "leaf": 0.0812103525}]}, {"nodeid": 0, "depth": 0, "split": "f4", "split_condition": 39997.0195, "yes": 1, "no": 2, "missing": 2, "children": [{"nodeid": 1, "depth": 1, "split": "f5", "split_condition": 180.986191, "yes": 3, "no": 4, "missing": 4, "children": [{"nodeid": 3, "depth": 2, "split": "f7", "split_condition": 111.660004, "yes": 5, "no": 6, "missing": 6, "children": [{"nodeid": 5, "depth": 3, "split": "f3", "split_condition": 30.1280766, "yes": 7, "no": 8, "missing": 8, "children": [{"nodeid": 7, "leaf": -0.0716236234}, {"nodeid": 8, "leaf": 0.0607841015}]}, {"nodeid": 6, "depth": 3, "split": "f5", "split_condition": 119.629997, "yes": 9, "no": 10, "missing": 10, "children": [{"nodeid": 9, "leaf": -0.0303103793}, {"nodeid": 10, "leaf": 0.165406659}]}]}, {"nodeid": 4, "leaf": 0.0775361583}]}, {"nodeid": 2, "leaf": 0.0827828422}]}, {"nodeid": 0, "depth": 0, "split": "f5", "split_condition": 179.029999, "yes": 1, "no": 2, "missing": 2, "children": [{"nodeid": 1, "depth": 1, "split": "f6", "split_condition": 218.426834, "yes": 3, "no": 4, "missing": 4, "children": [{"nodeid": 3, "depth": 2, "split": "f0", "split_condition": 367.116791, "yes": 7, "no": 8, "missing": 8, "children": [{"nodeid": 7, "depth": 3, "split": "f1", "split_condition": 49.5308189, "yes": 13, "no": 14, "missing": 14, "children": [{"nodeid": 13, "leaf": -0.0694434643}, {"nodeid": 14, "leaf": 0.0433904007}]}, {"nodeid": 8, "leaf": 0.108323365}]}, {"nodeid": 4, "depth": 2, "split": "f5", "split_condition": 90.9948578, "yes": 9, "no": 10, "missing": 10, "children": [{"nodeid": 9, "depth": 3, "split": "f6", "split_condition": 583.7948, "yes": 15, "no": 16, "missing": 16, "children": [{"nodeid": 15, "leaf": -0.0477792732}, {"nodeid": 16, "leaf": 0.065376237}]}, {"nodeid": 10, "depth": 3, "split": "f8", "split_condition": 21760.8594, "yes": 17, "no": 18, "missing": 18, "children": [{"nodeid": 17, "leaf": 0.215092182}, {"nodeid": 18, "leaf": 0.0604493804}]}]}]}, {"nodeid": 2, "depth": 1, "split": "f5", "split_condition": 180.986191, "yes": 5, "no": 6, "missing": 6, "children": [{"nodeid": 5, "depth": 2, "split": "f0", "split_condition": 197.910004, "yes": 11, "no": 12, "missing": 12, "children": [{"nodeid": 11, "leaf": -0.028181769}, {"nodeid": 12, "leaf": 0.0827135891}]}, {"nodeid": 6, "leaf": 0.0796294063}]}]}, {"nodeid": 0, "depth": 0, "split": "f4", "split_condition": 39997.0195, "yes": 1, "no": 2, "missing": 2, "children": [{"nodeid": 1, "depth": 1, "split": "f1", "split_condition": 50.4747086, "yes": 3, "no": 4, "missing": 4, "children": [{"nodeid": 3, "depth": 2, "split": "f2", "split_condition": 50.0213585, "yes": 5, "no": 6, "missing": 6, "children": [{"nodeid": 5, "depth": 3, "split": "f5", "split_condition": 180.986191, "yes": 7, "no": 8, "missing": 8, "children": [{"nodeid": 7, "leaf": -0.0501045249}, {"nodeid": 8, "leaf": 0.0639312714}]}, {"nodeid": 6, "leaf": 0.0775508136}]}, {"nodeid": 4, "leaf": 0.0778535157}]}, {"nodeid": 2, "leaf": 0.081630066}]}, {"nodeid": 0, "depth": 0, "split": "f8", "split_condition": 24009.9238, "yes": 1, "no": 2, "missing": 2, "children": [{"nodeid": 1, "depth": 1, "split": "f3", "split_condition": 30.1280766, "yes": 3, "no": 4, "missing": 4, "children": [{"nodeid": 3, "depth": 2, "split": "f2", "split_condition": 50.0213585, "yes": 5, "no": 6, "missing": 6, "children": [{"nodeid": 5, "depth": 3, "split": "f1", "split_condition": 50.4747086, "yes": 7, "no": 8, "missing": 8, "children": [{"nodeid": 7, "leaf": -0.0517233871}, {"nodeid": 8, "leaf": 0.0694007128}]}, {"nodeid": 6, "leaf": 0.0771905109}]}, {"nodeid": 4, "leaf": 0.0799205676}]}, {"nodeid": 2, "leaf": 0.0801785514}]}, {"nodeid": 0, "depth": 0, "split": "f5", "split_condition": 179.029999, "yes": 1, "no": 2, "missing": 2, "children": [{"nodeid": 1, "depth": 1, "split": "f6", "split_condition": 216.776947, "yes": 3, "no": 4, "missing": 4, "children": [{"nodeid": 3, "depth": 2, "split": "f7", "split_condition": 144.420105, "yes": 7, "no": 8, "missing": 8, "children": [{"nodeid": 7, "depth": 3, "split": "f3", "split_condition": 30.1280766, "yes": 13, "no": 14, "missing": 14, "children": [{"nodeid": 13, "leaf": -0.0656956211}, {"nodeid": 14, "leaf": 0.0632399321}]}, {"nodeid": 8, "leaf": 0.109986529}]}, {"nodeid": 4, "depth": 2, "split": "f5", "split_condition": 90.9948578, "yes": 9, "no": 10, "missing": 10, "children": [{"nodeid": 9, "depth": 3, "split": "f6", "split_condition": 598.771606, "yes": 15, "no": 16, "missing": 16, "children": [{"nodeid": 15, "leaf": -0.0434579924}, {"nodeid": 16, "leaf": 0.0641846508}]}, {"nodeid": 10, "depth": 3, "split": "f8", "split_condition": 20385.4805, "yes": 17, "no": 18, "missing": 18, "children": [{"nodeid": 17, "leaf": 0.227243513}, {"nodeid": 18, "leaf": 0.0630937293}]}]}]}, {"nodeid": 2, "depth": 1, "split": "f5", "split_condition": 180.986191, "yes": 5, "no": 6, "missing": 6, "children": [{"nodeid": 5, "depth": 2, "split": "f0", "split_condition": 197.910004, "yes": 11, "no": 12, "missing": 12, "children": [{"nodeid": 11, "leaf": -0.0264443457}, {"nodeid": 12, "leaf": 0.0815625638}]}, {"nodeid": 6, "leaf": 0.0787947029}]}]}, {"nodeid": 0, "depth": 0, "split": "f4", "split_condition": 40575.5273, "yes": 1, "no": 2, "missing": 2, "children": [{"nodeid": 1, "depth": 1, "split": "f3", "split_condition": 30.1280766, "yes": 3, "no": 4, "missing": 4, "children": [{"nodeid": 3, "depth": 2, "split": "f2", "split_condition": 50.0213585, "yes": 5, "no": 6, "missing": 6, "children": [{"nodeid": 5, "depth": 3, "split": "f1", "split_condition": 50.4747086, "yes": 7, "no": 8, "missing": 8, "children": [{"nodeid": 7, "leaf": -0.0514066257}, {"nodeid": 8, "leaf": 0.0672451258}]}, {"nodeid": 6, "leaf": 0.0765830278}]}, {"nodeid": 4, "leaf": 0.0790155903}]}, {"nodeid": 2, "leaf": 0.0817182586}]}, {"nodeid": 0, "depth": 0, "split": "f8", "split_condition": 24009.9238, "yes": 1, "no": 2, "missing": 2, "children": [{"nodeid": 1, "depth": 1, "split": "f1", "split_condition": 49.0986061, "yes": 3, "no": 4, "missing": 4, "children": [{"nodeid": 3, "depth": 2, "split": "f3", "split_condition": 30.1280766, "yes": 5, "no": 6, "missing": 6, "children": [{"nodeid": 5, "depth": 3, "split": "f6", "split_condition": 216.776947, "yes": 9, "no": 10, "missing": 10, "children": [{"nodeid": 9, "leaf": -0.0595916919}, {"nodeid": 10, "leaf": 0.000716735085}]}, {"nodeid": 6, "leaf": 0.0730160028}]}, {"nodeid": 4, "depth": 2, "split": "f5", "split_condition": 68.6600037, "yes": 7, "no": 8, "missing": 8, "children": [{"nodeid": 7, "leaf": -0.00656008208}, {"nodeid": 8, "depth": 3, "split": "f6", "split_condition": 58.1860619, "yes": 11, "no": 12, "missing": 12, "children": [{"nodeid": 11, "leaf": 0.00304389978}, {"nodeid": 12, "leaf": 0.0763250291}]}]}]}, {"nodeid": 2, "leaf": 0.0793646723}]}, {"nodeid": 0, "depth": 0, "split": "f5", "split_condition": 179.029999, "yes": 1, "no": 2, "missing": 2, "children": [{"nodeid": 1, "depth": 1, "split": "f6", "split_condition": 216.776947, "yes": 3, "no": 4, "missing": 4, "children": [{"nodeid": 3, "depth": 2, "split": "f0", "split_condition": 363.058655, "yes": 7, "no": 8, "missing": 8, "children": [{"nodeid": 7, "depth": 3, "split": "f1", "split_condition": 49.5308189, "yes": 13, "no": 14, "missing": 14, "children": [{"nodeid": 13, "leaf": -0.062722981}, {"nodeid": 14, "leaf": 0.0468233675}]}, {"nodeid": 8, "leaf": 0.112673536}]}, {"nodeid": 4, "depth": 2, "split": "f5", "split_condition": 90.9948578, "yes": 9, "no": 10, "missing": 10, "children": [{"nodeid": 9, "depth": 3, "split": "f6", "split_condition": 475.589752, "yes": 15, "no": 16, "missing": 16, "children": [{"nodeid": 15, "leaf": -0.0498990342}, {"nodeid": 16, "leaf": 0.0419352725}]}, {"nodeid": 10, "depth": 3, "split": "f8", "split_condition": 20385.4805, "yes": 17, "no": 18, "missing": 18, "children": [{"nodeid": 17, "leaf": 0.236987516}, {"nodeid": 18, "leaf": 0.0546614453}]}]}]}, {"nodeid": 2, "depth": 1, "split": "f5", "split_condition": 180.986191, "yes": 5, "no": 6, "missing": 6, "children": [{"nodeid": 5, "depth": 2, "split": "f2", "split_condition": 33.7968025, "yes": 11, "no": 12, "missing": 12, "children": [{"nodeid": 11, "leaf": 0.000348830101}, {"nodeid": 12, "leaf": 0.0495532416}]}, {"nodeid": 6, "leaf": 0.0780247077}]}]}, {"nodeid": 0, "depth": 0, "split": "f4", "split_condition": 40575.5273, "yes": 1, "no": 2, "missing": 2, "children": [{"nodeid": 1, "depth": 1, "split": "f2", "split_condition": 50.0213585, "yes": 3, "no": 4, "missing": 4, "children": [{"nodeid": 3, "depth": 2, "split": "f3", "split_condition": 30.1280766, "yes": 5, "no": 6, "missing": 6, "children": [{"nodeid": 5, "depth": 3, "split": "f1", "split_condition": 50.4747086, "yes": 7, "no": 8, "missing": 8, "children": [{"nodeid": 7, "leaf": -0.0449843556}, {"nodeid": 8, "leaf": 0.0656846389}]}, {"nodeid": 6, "leaf": 0.0759549662}]}, {"nodeid": 4, "leaf": 0.0776014924}]}, {"nodeid": 2, "leaf": 0.0808946937}]}, {"nodeid": 0, "depth": 0, "split": "f5", "split_condition": 179.029999, "yes": 1, "no": 2, "missing": 2, "children": [{"nodeid": 1, "depth": 1, "split": "f7", "split_condition": 118.925972, "yes": 3, "no": 4, "missing": 4, "children": [{"nodeid": 3, "depth": 2, "split": "f0", "split_condition": 293.300781, "yes": 5, "no": 6, "missing": 6, "children": [{"nodeid": 5, "depth": 3, "split": "f2", "split_condition": 50.0213585, "yes": 9, "no": 10, "missing": 10, "children": [{"nodeid": 9, "leaf": -0.0673310757}, {"nodeid": 10, "leaf": 0.052340176}]}, {"nodeid": 6, "leaf": 0.075752601}]}, {"nodeid": 4, "depth": 2, "split": "f5", "split_condition": 117.839996, "yes": 7, "no": 8, "missing": 8, "children": [{"nodeid": 7, "depth": 3, "split": "f5", "split_condition": 58.5075531, "yes": 11, "no": 12, "missing": 12, "children": [{"nodeid": 11, "leaf": -0.0667367801}, {"nodeid": 12, "leaf": 0.0196194649}]}, {"nodeid": 8, "depth": 3, "split": "f4", "split_condition": 38174.1719, "yes": 13, "no": 14, "missing": 14, "children": [{"nodeid": 13, "leaf": 0.235806674}, {"nodeid": 14, "leaf": 0.0660540387}]}]}]}, {"nodeid": 2, "leaf": 0.0763634592}]}, {"nodeid": 0, "depth": 0, "split": "f5", "split_condition": 168.130005, "yes": 1, "no": 2, "missing": 2, "children": [{"nodeid": 1, "depth": 1, "split": "f6", "split_condition": 291.162628, "yes": 3, "no": 4, "missing": 4, "children": [{"nodeid": 3, "depth": 2, "split": "f1", "split_condition": 49.0986061, "yes": 7, "no": 8, "missing": 8, "children": [{"nodeid": 7, "depth": 3, "split": "f7", "split_condition": 191.007324, "yes": 15, "no": 16, "missing": 16, "children": [{"nodeid": 15, "leaf": -0.0629180595}, {"nodeid": 16, "leaf": 0.0712931454}]}, {"nodeid": 8, "depth": 3, "split": "f6", "split_condition": 129.860001, "yes": 17, "no": 18, "missing": 18, "children": [{"nodeid": 17, "leaf": -0.0125009101}, {"nodeid": 18, "leaf": 0.0666950867}]}]}, {"nodeid": 4, "depth": 2, "split": "f5", "split_condition": 67.6800003, "yes": 9, "no": 10, "missing": 10, "children": [{"nodeid": 9, "depth": 3, "split": "f7", "split_condition": 426.020905, "yes": 19, "no": 20, "missing": 20, "children": [{"nodeid": 19, "leaf": -0.05770614}, {"nodeid": 20, "leaf": 0.0242914036}]}, {"nodeid": 10, "depth": 3, "split": "f8", "split_condition": 21760.8594, "yes": 21, "no": 22, "missing": 22, "children": [{"nodeid": 21, "leaf": 0.147082061}, {"nodeid": 22, "leaf": 0.0669895187}]}]}]}, {"nodeid": 2, "depth": 1, "split": "f0", "split_condition": 197.910004, "yes": 5, "no": 6, "missing": 6, "children": [{"nodeid": 5, "depth": 2, "split": "f5", "split_condition": 180.986191, "yes": 11, "no": 12, "missing": 12, "children": [{"nodeid": 11, "depth": 3, "split": "f7", "split_condition": 73.25, "yes": 23, "no": 24, "missing": 24, "children": [{"nodeid": 23, "leaf": -0.0628073961}, {"nodeid": 24, "leaf": -0.0057648127}]}, {"nodeid": 12, "leaf": 0.0669665858}]}, {"nodeid": 6, "depth": 2, "split": "f4", "split_condition": 23037.7598, "yes": 13, "no": 14, "missing": 14, "children": [{"nodeid": 13, "leaf": 0.229612648}, {"nodeid": 14, "depth": 3, "split": "f0", "split_condition": 233.429993, "yes": 25, "no": 26, "missing": 26, "children": [{"nodeid": 25, "leaf": 0.00701828534}, {"nodeid": 26, "leaf": 0.0817598104}]}]}]}]}, {"nodeid": 0, "depth": 0, "split": "f5", "split_condition": 168.130005, "yes": 1, "no": 2, "missing": 2, "children": [{"nodeid": 1, "depth": 1, "split": "f7", "split_condition": 132.650879, "yes": 3, "no": 4, "missing": 4, "children": [{"nodeid": 3, "depth": 2, "split": "f6", "split_condition": 195.839996, "yes": 7, "no": 8, "missing": 8, "children": [{"nodeid": 7, "depth": 3, "split": "f2", "split_condition": 50.0213585, "yes": 15, "no": 16, "missing": 16, "children": [{"nodeid": 15, "leaf": -0.0663310066}, {"nodeid": 16, "leaf": 0.0468798093}]}, {"nodeid": 8, "leaf": 0.0586475693}]}, {"nodeid": 4, "depth": 2, "split": "f5", "split_condition": 90.9948578, "yes": 9, "no": 10, "missing": 10, "children": [{"nodeid": 9, "depth": 3, "split": "f6", "split_condition": 475.589752, "yes": 17, "no": 18, "missing": 18, "children": [{"nodeid": 17, "leaf": -0.04518383}, {"nodeid": 18, "leaf": 0.044273261}]}, {"nodeid": 10, "depth": 3, "split": "f8", "split_condition": 19361.1992, "yes": 19, "no": 20, "missing": 20, "children": [{"nodeid": 19, "leaf": 0.229897395}, {"nodeid": 20, "leaf": 0.0362036414}]}]}]}, {"nodeid": 2, "depth": 1, "split": "f7", "split_condition": 59.2474403, "yes": 5, "no": 6, "missing": 6, "children": [{"nodeid": 5, "depth": 2, "split": "f5", "split_condition": 180.986191, "yes": 11, "no": 12, "missing": 12, "children": [{"nodeid": 11, "leaf": -0.0595100969}, {"nodeid": 12, "leaf": 0.0585728884}]}, {"nodeid": 6, "depth": 2, "split": "f4", "split_condition": 23037.7598, "yes": 13, "no": 14, "missing": 14, "children": [{"nodeid": 13, "depth": 3, "split": "f5", "split_condition": 180.986191, "yes": 21, "no": 22, "missing": 22, "children": [{"nodeid": 21, "leaf": 0.224622682}, {"nodeid": 22, "leaf": 0.0473422557}]}, {"nodeid": 14, "depth": 3, "split": "f7", "split_condition": 91.1614151, "yes": 23, "no": 24, "missing": 24, "children": [{"nodeid": 23, "leaf": -0.00191376172}, {"nodeid": 24, "leaf": 0.0803925246}]}]}]}]}, {"nodeid": 0, "depth": 0, "split": "f8", "split_condition": 24009.9238, "yes": 1, "no": 2, "missing": 2, "children": [{"nodeid": 1, "depth": 1, "split": "f3", "split_condition": 30.1280766, "yes": 3, "no": 4, "missing": 4, "children": [{"nodeid": 3, "depth": 2, "split": "f2", "split_condition": 50.0213585, "yes": 5, "no": 6, "missing": 6, "children": [{"nodeid": 5, "depth": 3, "split": "f5", "split_condition": 128.902969, "yes": 7, "no": 8, "missing": 8, "children": [{"nodeid": 7, "leaf": -0.0572052412}, {"nodeid": 8, "leaf": 0.000203259653}]}, {"nodeid": 6, "leaf": 0.0715195239}]}, {"nodeid": 4, "leaf": 0.0757868439}]}, {"nodeid": 2, "leaf": 0.0776418447}]}, {"nodeid": 0, "depth": 0, "split": "f7", "split_condition": 111.660004, "yes": 1, "no": 2, "missing": 2, "children": [{"nodeid": 1, "depth": 1, "split": "f5", "split_condition": 180.986191, "yes": 3, "no": 4, "missing": 4, "children": [{"nodeid": 3, "depth": 2, "split": "f0", "split_condition": 276.850311, "yes": 7, "no": 8, "missing": 8, "children": [{"nodeid": 7, "depth": 3, "split": "f1", "split_condition": 49.9500008, "yes": 13, "no": 14, "missing": 14, "children": [{"nodeid": 13, "leaf": -0.0667605549}, {"nodeid": 14, "leaf": 0.0334117822}]}, {"nodeid": 8, "leaf": 0.0666935518}]}, {"nodeid": 4, "leaf": 0.0699308664}]}, {"nodeid": 2, "depth": 1, "split": "f5", "split_condition": 117.839996, "yes": 5, "no": 6, "missing": 6, "children": [{"nodeid": 5, "depth": 2, "split": "f6", "split_condition": 299.226685, "yes": 9, "no": 10, "missing": 10, "children": [{"nodeid": 9, "depth": 3, "split": "f8", "split_condition": 11918.3096, "yes": 15, "no": 16, "missing": 16, "children": [{"nodeid": 15, "leaf": 0.0118403016}, {"nodeid": 16, "leaf": -0.0679228827}]}, {"nodeid": 10, "depth": 3, "split": "f5", "split_condition": 67.6800003, "yes": 17, "no": 18, "missing": 18, "children": [{"nodeid": 17, "leaf": -0.0427102968}, {"nodeid": 18, "leaf": 0.105945393}]}]}, {"nodeid": 6, "depth": 2, "split": "f8", "split_condition": 21760.8594, "yes": 11, "no": 12, "missing": 12, "children": [{"nodeid": 11, "depth": 3, "split": "f3", "split_condition": 30, "yes": 19, "no": 20, "missing": 20, "children": [{"nodeid": 19, "leaf": 0.213723421}, {"nodeid": 20, "leaf": 0.0432154983}]}, {"nodeid": 12, "depth": 3, "split": "f7", "split_condition": 123.999352, "yes": 21, "no": 22, "missing": 22, "children": [{"nodeid": 21, "leaf": -0.00858924445}, {"nodeid": 22, "leaf": 0.0727466866}]}]}]}]}, {"nodeid": 0, "depth": 0, "split": "f1", "split_condition": 49.0986061, "yes": 1, "no": 2, "missing": 2, "children": [{"nodeid": 1, "depth": 1, "split": "f0", "split_condition": 330.55307, "yes": 3, "no": 4, "missing": 4, "children": [{"nodeid": 3, "depth": 2, "split": "f5", "split_condition": 180.986191, "yes": 7, "no": 8, "missing": 8, "children": [{"nodeid": 7, "depth": 3, "split": "f7", "split_condition": 128.460007, "yes": 13, "no": 14, "missing": 14, "children": [{"nodeid": 13, "leaf": -0.0614174679}, {"nodeid": 14, "leaf": 0.0596052259}]}, {"nodeid": 8, "leaf": 0.0634584427}]}, {"nodeid": 4, "depth": 2, "split": "f5", "split_condition": 90.9948578, "yes": 9, "no": 10, "missing": 10, "children": [{"nodeid": 9, "depth": 3, "split": "f6", "split_condition": 475.589752, "yes": 15, "no": 16, "missing": 16, "children": [{"nodeid": 15, "leaf": -0.0571027361}, {"nodeid": 16, "leaf": 0.0326886512}]}, {"nodeid": 10, "depth": 3, "split": "f8", "split_condition": 19361.1992, "yes": 17, "no": 18, "missing": 18, "children": [{"nodeid": 17, "leaf": 0.250942916}, {"nodeid": 18, "leaf": 0.0493003204}]}]}]}, {"nodeid": 2, "depth": 1, "split": "f5", "split_condition": 67.6800003, "yes": 5, "no": 6, "missing": 6, "children": [{"nodeid": 5, "leaf": 0.000841172237}, {"nodeid": 6, "depth": 2, "split": "f6", "split_condition": 68.1399994, "yes": 11, "no": 12, "missing": 12, "children": [{"nodeid": 11, "leaf": 0.00602199463}, {"nodeid": 12, "leaf": 0.0768958777}]}]}]}, {"nodeid": 0, "depth": 0, "split": "f5", "split_condition": 169.399994, "yes": 1, "no": 2, "missing": 2, "children": [{"nodeid": 1, "depth": 1, "split": "f7", "split_condition": 199.779999, "yes": 3, "no": 4, "missing": 4, "children": [{"nodeid": 3, "depth": 2, "split": "f6", "split_condition": 294.10437, "yes": 7, "no": 8, "missing": 8, "children": [{"nodeid": 7, "depth": 3, "split": "f1", "split_condition": 49.0986061, "yes": 15, "no": 16, "missing": 16, "children": [{"nodeid": 15, "leaf": -0.0540818423}, {"nodeid": 16, "leaf": 0.0388535447}]}, {"nodeid": 8, "leaf": 0.0902305469}]}, {"nodeid": 4, "depth": 2, "split": "f5", "split_condition": 72.3600006, "yes": 9, "no": 10, "missing": 10, "children": [{"nodeid": 9, "depth": 3, "split": "f8", "split_condition": 24009.9238, "yes": 17, "no": 18, "missing": 18, "children": [{"nodeid": 17, "leaf": -0.0501573756}, {"nodeid": 18, "leaf": 0.046524018}]}, {"nodeid": 10, "depth": 3, "split": "f8", "split_condition": 21512.834, "yes": 19, "no": 20, "missing": 20, "children": [{"nodeid": 19, "leaf": 0.167585179}, {"nodeid": 20, "leaf": 0.067168422}]}]}]}, {"nodeid": 2, "depth": 1, "split": "f0", "split_condition": 197.910004, "yes": 5, "no": 6, "missing": 6, "children": [{"nodeid": 5, "depth": 2, "split": "f5", "split_condition": 180.986191, "yes": 11, "no": 12, "missing": 12, "children": [{"nodeid": 11, "depth": 3, "split": "f7", "split_condition": 69.8199997, "yes": 21, "no": 22, "missing": 22, "children": [{"nodeid": 21, "leaf": -0.0580292493}, {"nodeid": 22, "leaf": -0.0137022706}]}, {"nodeid": 12, "leaf": 0.062846072}]}, {"nodeid": 6, "depth": 2, "split": "f4", "split_condition": 23037.7598, "yes": 13, "no": 14, "missing": 14, "children": [{"nodeid": 13, "leaf": 0.180848688}, {"nodeid": 14, "depth": 3, "split": "f0", "split_condition": 228.539383, "yes": 23, "no": 24, "missing": 24, "children": [{"nodeid": 23, "leaf": 0.00901674386}, {"nodeid": 24, "leaf": 0.0786062852}]}]}]}]}, {"nodeid": 0, "depth": 0, "split": "f5", "split_condition": 154.429993, "yes": 1, "no": 2, "missing": 2, "children": [{"nodeid": 1, "depth": 1, "split": "f7", "split_condition": 199.779999, "yes": 3, "no": 4, "missing": 4, "children": [{"nodeid": 3, "depth": 2, "split": "f3", "split_condition": 30.1280766, "yes": 7, "no": 8, "missing": 8, "children": [{"nodeid": 7, "depth": 3, "split": "f2", "split_condition": 50.0213585, "yes": 15, "no": 16, "missing": 16, "children": [{"nodeid": 15, "leaf": -0.0544007346}, {"nodeid": 16, "leaf": 0.0493314862}]}, {"nodeid": 8, "leaf": 0.0535731129}]}, {"nodeid": 4, "depth": 2, "split": "f5", "split_condition": 64.9586639, "yes": 9, "no": 10, "missing": 10, "children": [{"nodeid": 9, "depth": 3, "split": "f2", "split_condition": 48, "yes": 17, "no": 18, "missing": 18, "children": [{"nodeid": 17, "leaf": -0.0576493405}, {"nodeid": 18, "leaf": 0.0209029913}]}, {"nodeid": 10, "depth": 3, "split": "f8", "split_condition": 21512.834, "yes": 19, "no": 20, "missing": 20, "children": [{"nodeid": 19, "leaf": 0.141926691}, {"nodeid": 20, "leaf": 0.059488181}]}]}]}, {"nodeid": 2, "depth": 1, "split": "f0", "split_condition": 199.449997, "yes": 5, "no": 6, "missing": 6, "children": [{"nodeid": 5, "depth": 2, "split": "f5", "split_condition": 180.986191, "yes": 11, "no": 12, "missing": 12, "children": [{"nodeid": 11, "depth": 3, "split": "f1", "split_condition": 47.6118317, "yes": 21, "no": 22, "missing": 22, "children": [{"nodeid": 21, "leaf": -0.0665969625}, {"nodeid": 22, "leaf": 0.00624476699}]}, {"nodeid": 12, "leaf": 0.0620749891}]}, {"nodeid": 6, "depth": 2, "split": "f4", "split_condition": 24604.2793, "yes": 13, "no": 14, "missing": 14, "children": [{"nodeid": 13, "depth": 3, "split": "f3", "split_condition": 22.8886261, "yes": 23, "no": 24, "missing": 24, "children": [{"nodeid": 23, "leaf": 0.24751766}, {"nodeid": 24, "leaf": 0.0670000687}]}, {"nodeid": 14, "depth": 3, "split": "f0", "split_condition": 249.512756, "yes": 25, "no": 26, "missing": 26, "children": [{"nodeid": 25, "leaf": -0.00944603793}, {"nodeid": 26, "leaf": 0.0871304795}]}]}]}]}, {"nodeid": 0, "depth": 0, "split": "f5", "split_condition": 154.429993, "yes": 1, "no": 2, "missing": 2, "children": [{"nodeid": 1, "depth": 1, "split": "f7", "split_condition": 199.779999, "yes": 3, "no": 4, "missing": 4, "children": [{"nodeid": 3, "depth": 2, "split": "f6", "split_condition": 294.10437, "yes": 7, "no": 8, "missing": 8, "children": [{"nodeid": 7, "depth": 3, "split": "f2", "split_condition": 50.0213585, "yes": 15, "no": 16, "missing": 16, "children": [{"nodeid": 15, "leaf": -0.0550300889}, {"nodeid": 16, "leaf": 0.051850576}]}, {"nodeid": 8, "leaf": 0.0907069966}]}, {"nodeid": 4, "depth": 2, "split": "f5", "split_condition": 59.4099998, "yes": 9, "no": 10, "missing": 10, "children": [{"nodeid": 9, "depth": 3, "split": "f2", "split_condition": 46, "yes": 17, "no": 18, "missing": 18, "children": [{"nodeid": 17, "leaf": -0.061702989}, {"nodeid": 18, "leaf": -0.00204342743}]}, {"nodeid": 10, "depth": 3, "split": "f5", "split_condition": 77.4300003, "yes": 19, "no": 20, "missing": 20, "children": [{"nodeid": 19, "leaf": 0.0274842568}, {"nodeid": 20, "leaf": 0.11394956}]}]}]}, {"nodeid": 2, "depth": 1, "split": "f0", "split_condition": 199.449997, "yes": 5, "no": 6, "missing": 6, "children": [{"nodeid": 5, "depth": 2, "split": "f5", "split_condition": 180.986191, "yes": 11, "no": 12, "missing": 12, "children": [{"nodeid": 11, "leaf": -0.0625010654}, {"nodeid": 12, "leaf": 0.0614664629}]}, {"nodeid": 6, "depth": 2, "split": "f4", "split_condition": 24604.2793, "yes": 13, "no": 14, "missing": 14, "children": [{"nodeid": 13, "leaf": 0.192531541}, {"nodeid": 14, "depth": 3, "split": "f0", "split_condition": 249.512756, "yes": 21, "no": 22, "missing": 22, "children": [{"nodeid": 21, "leaf": -0.00959553011}, {"nodeid": 22, "leaf": 0.087079972}]}]}]}]}, {"nodeid": 0, "depth": 0, "split": "f5", "split_condition": 154.429993, "yes": 1, "no": 2, "missing": 2, "children": [{"nodeid": 1, "depth": 1, "split": "f6", "split_condition": 224.360001, "yes": 3, "no": 4, "missing": 4, "children": [{"nodeid": 3, "depth": 2, "split": "f2", "split_condition": 50.0213585, "yes": 7, "no": 8, "missing": 8, "children": [{"nodeid": 7, "depth": 3, "split": "f2", "split_condition": 2.57357717, "yes": 15, "no": 16, "missing": 16, "children": [{"nodeid": 15, "leaf": 0.0138030089}, {"nodeid": 16, "leaf": -0.061874833}]}, {"nodeid": 8, "leaf": 0.0483688004}]}, {"nodeid": 4, "depth": 2, "split": "f5", "split_condition": 78.1999969, "yes": 9, "no": 10, "missing": 10, "children": [{"nodeid": 9, "depth": 3, "split": "f2", "split_condition": 50.0213585, "yes": 17, "no": 18, "missing": 18, "children": [{"nodeid": 17, "leaf": -0.0489561372}, {"nodeid": 18, "leaf": 0.049221199}]}, {"nodeid": 10, "depth": 3, "split": "f8", "split_condition": 19929.3301, "yes": 19, "no": 20, "missing": 20, "children": [{"nodeid": 19, "leaf": 0.168191761}, {"nodeid": 20, "leaf": 0.0226939507}]}]}]}, {"nodeid": 2, "depth": 1, "split": "f7", "split_condition": 100.319519, "yes": 5, "no": 6, "missing": 6, "children": [{"nodeid": 5, "depth": 2, "split": "f5", "split_condition": 179.029999, "yes": 11, "no": 12, "missing": 12, "children": [{"nodeid": 11, "depth": 3, "split": "f2", "split_condition": 42.6292953, "yes": 21, "no": 22, "missing": 22, "children": [{"nodeid": 21, "leaf": -0.0561883487}, {"nodeid": 22, "leaf": 0.00763722835}]}, {"nodeid": 12, "depth": 3, "split": "f5", "split_condition": 180.986191, "yes": 23, "no": 24, "missing": 24, "children": [{"nodeid": 23, "leaf": 0.00775673846}, {"nodeid": 24, "leaf": 0.0643653497}]}]}, {"nodeid": 6, "depth": 2, "split": "f5", "split_condition": 177.453949, "yes": 13, "no": 14, "missing": 14, "children": [{"nodeid": 13, "depth": 3, "split": "f7", "split_condition": 156.080276, "yes": 25, "no": 26, "missing": 26, "children": [{"nodeid": 25, "leaf": 0.193767861}, {"nodeid": 26, "leaf": 0.049117174}]}, {"nodeid": 14, "leaf": 0.072429426}]}]}]}, {"nodeid": 0, "depth": 0, "split": "f5", "split_condition": 154.429993, "yes": 1, "no": 2, "missing": 2, "children": [{"nodeid": 1, "depth": 1, "split": "f7", "split_condition": 143.119995, "yes": 3, "no": 4, "missing": 4, "children": [{"nodeid": 3, "depth": 2, "split": "f2", "split_condition": 49.8874702, "yes": 7, "no": 8, "missing": 8, "children": [{"nodeid": 7, "depth": 3, "split": "f3", "split_condition": 29.2476177, "yes": 15, "no": 16, "missing": 16, "children": [{"nodeid": 15, "leaf": -0.0651478693}, {"nodeid": 16, "leaf": 0.0165035594}]}, {"nodeid": 8, "leaf": 0.0243902374}]}, {"nodeid": 4, "depth": 2, "split": "f5", "split_condition": 75.3613586, "yes": 9, "no": 10, "missing": 10, "children": [{"nodeid": 9, "depth": 3, "split": "f2", "split_condition": 50.0213585, "yes": 17, "no": 18, "missing": 18, "children": [{"nodeid": 17, "leaf": -0.0476485379}, {"nodeid": 18, "leaf": 0.0482042953}]}, {"nodeid": 10, "depth": 3, "split": "f4", "split_condition": 29502.1289, "yes": 19, "no": 20, "missing": 20, "children": [{"nodeid": 19, "leaf": 0.16082935}, {"nodeid": 20, "leaf": 0.0151612014}]}]}]}, {"nodeid": 2, "depth": 1, "split": "f7", "split_condition": 100.319519, "yes": 5, "no": 6, "missing": 6, "children": [{"nodeid": 5, "depth": 2, "split": "f5", "split_condition": 180.986191, "yes": 11, "no": 12, "missing": 12, "children": [{"nodeid": 11, "depth": 3, "split": "f2", "split_condition": 42.6292953, "yes": 21, "no": 22, "missing": 22, "children": [{"nodeid": 21, "leaf": -0.0529566333}, {"nodeid": 22, "leaf": 0.0116981706}]}, {"nodeid": 12, "leaf": 0.0637971312}]}, {"nodeid": 6, "depth": 2, "split": "f5", "split_condition": 177.453949, "yes": 13, "no": 14, "missing": 14, "children": [{"nodeid": 13, "depth": 3, "split": "f7", "split_condition": 156.080276, "yes": 23, "no": 24, "missing": 24, "children": [{"nodeid": 23, "leaf": 0.178561211}, {"nodeid": 24, "leaf": 0.0471967869}]}, {"nodeid": 14, "leaf": 0.0716516003}]}]}]}, {"nodeid": 0, "depth": 0, "split": "f7", "split_condition": 111.660004, "yes": 1, "no": 2, "missing": 2, "children": [{"nodeid": 1, "depth": 1, "split": "f5", "split_condition": 179.029999, "yes": 3, "no": 4, "missing": 4, "children": [{"nodeid": 3, "depth": 2, "split": "f3", "split_condition": 30.1280766, "yes": 7, "no": 8, "missing": 8, "children": [{"nodeid": 7, "depth": 3, "split": "f2", "split_condition": 49.8874702, "yes": 15, "no": 16, "missing": 16, "children": [{"nodeid": 15, "leaf": -0.0652840286}, {"nodeid": 16, "leaf": 0.0185833871}]}, {"nodeid": 8, "leaf": 0.0512280352}]}, {"nodeid": 4, "depth": 2, "split": "f5", "split_condition": 180.986191, "yes": 9, "no": 10, "missing": 10, "children": [{"nodeid": 9, "leaf": 0.00956578087}, {"nodeid": 10, "leaf": 0.0644527227}]}]}, {"nodeid": 2, "depth": 1, "split": "f5", "split_condition": 117.839996, "yes": 5, "no": 6, "missing": 6, "children": [{"nodeid": 5, "depth": 2, "split": "f4", "split_condition": 16183.96, "yes": 11, "no": 12, "missing": 12, "children": [{"nodeid": 11, "depth": 3, "split": "f5", "split_condition": 59.9561844, "yes": 17, "no": 18, "missing": 18, "children": [{"nodeid": 17, "leaf": -0.0135712065}, {"nodeid": 18, "leaf": 0.137690902}]}, {"nodeid": 12, "depth": 3, "split": "f0", "split_condition": 865.111816, "yes": 19, "no": 20, "missing": 20, "children": [{"nodeid": 19, "leaf": -0.0474670082}, {"nodeid": 20, "leaf": 0.05297333}]}]}, {"nodeid": 6, "depth": 2, "split": "f8", "split_condition": 21760.8594, "yes": 13, "no": 14, "missing": 14, "children": [{"nodeid": 13, "leaf": 0.151128054}, {"nodeid": 14, "depth": 3, "split": "f7", "split_condition": 125.701508, "yes": 21, "no": 22, "missing": 22, "children": [{"nodeid": 21, "leaf": -0.00291533885}, {"nodeid": 22, "leaf": 0.0697026923}]}]}]}]}, {"nodeid": 0, "depth": 0, "split": "f5", "split_condition": 155.419998, "yes": 1, "no": 2, "missing": 2, "children": [{"nodeid": 1, "depth": 1, "split": "f6", "split_condition": 279.079132, "yes": 3, "no": 4, "missing": 4, "children": [{"nodeid": 3, "depth": 2, "split": "f7", "split_condition": 184.330002, "yes": 7, "no": 8, "missing": 8, "children": [{"nodeid": 7, "depth": 3, "split": "f1", "split_condition": 49.0986061, "yes": 15, "no": 16, "missing": 16, "children": [{"nodeid": 15, "leaf": -0.0608397759}, {"nodeid": 16, "leaf": 0.0279540047}]}, {"nodeid": 8, "leaf": 0.0580769777}]}, {"nodeid": 4, "depth": 2, "split": "f5", "split_condition": 78.1999969, "yes": 9, "no": 10, "missing": 10, "children": [{"nodeid": 9, "depth": 3, "split": "f8", "split_condition": 24009.9238, "yes": 17, "no": 18, "missing": 18, "children": [{"nodeid": 17, "leaf": -0.0424285606}, {"nodeid": 18, "leaf": 0.0478625521}]}, {"nodeid": 10, "depth": 3, "split": "f8", "split_condition": 19929.3301, "yes": 19, "no": 20, "missing": 20, "children": [{"nodeid": 19, "leaf": 0.149977684}, {"nodeid": 20, "leaf": 0.055631917}]}]}]}, {"nodeid": 2, "depth": 1, "split": "f7", "split_condition": 100.319519, "yes": 5, "no": 6, "missing": 6, "children": [{"nodeid": 5, "depth": 2, "split": "f5", "split_condition": 179.029999, "yes": 11, "no": 12, "missing": 12, "children": [{"nodeid": 11, "depth": 3, "split": "f2", "split_condition": 42.6292953, "yes": 21, "no": 22, "missing": 22, "children": [{"nodeid": 21, "leaf": -0.0520507619}, {"nodeid": 22, "leaf": 0.0162073746}]}, {"nodeid": 12, "depth": 3, "split": "f5", "split_condition": 180.986191, "yes": 23, "no": 24, "missing": 24, "children": [{"nodeid": 23, "leaf": 0.0129272137}, {"nodeid": 24, "leaf": 0.0617066473}]}]}, {"nodeid": 6, "depth": 2, "split": "f8", "split_condition": 21340.5, "yes": 13, "no": 14, "missing": 14, "children": [{"nodeid": 13, "leaf": 0.130220279}, {"nodeid": 14, "leaf": 0.0690812394}]}]}]}, {"nodeid": 0, "depth": 0, "split": "f3", "split_condition": 30.1280766, "yes": 1, "no": 2, "missing": 2, "children": [{"nodeid": 1, "depth": 1, "split": "f2", "split_condition": 50.0213585, "yes": 3, "no": 4, "missing": 4, "children": [{"nodeid": 3, "depth": 2, "split": "f5", "split_condition": 79.1800003, "yes": 5, "no": 6, "missing": 6, "children": [{"nodeid": 5, "depth": 3, "split": "f6", "split_condition": 613.578186, "yes": 7, "no": 8, "missing": 8, "children": [{"nodeid": 7, "leaf": -0.070731163}, {"nodeid": 8, "leaf": 0.016704997}]}, {"nodeid": 6, "depth": 3, "split": "f0", "split_condition": 333.519989, "yes": 9, "no": 10, "missing": 10, "children": [{"nodeid": 9, "leaf": -0.0358602591}, {"nodeid": 10, "leaf": 0.0823392272}]}]}, {"nodeid": 4, "leaf": 0.0706376955}]}, {"nodeid": 2, "leaf": 0.0753088668}]}, {"nodeid": 0, "depth": 0, "split": "f5", "split_condition": 132.042511, "yes": 1, "no": 2, "missing": 2, "children": [{"nodeid": 1, "depth": 1, "split": "f6", "split_condition": 279.079132, "yes": 3, "no": 4, "missing": 4, "children": [{"nodeid": 3, "depth": 2, "split": "f7", "split_condition": 182.431076, "yes": 7, "no": 8, "missing": 8, "children": [{"nodeid": 7, "depth": 3, "split": "f1", "split_condition": 49.7200012, "yes": 15, "no": 16, "missing": 16, "children": [{"nodeid": 15, "leaf": -0.0672048554}, {"nodeid": 16, "leaf": 0.0127728749}]}, {"nodeid": 8, "leaf": 0.0479750112}]}, {"nodeid": 4, "depth": 2, "split": "f5", "split_condition": 62.6100006, "yes": 9, "no": 10, "missing": 10, "children": [{"nodeid": 9, "depth": 3, "split": "f5", "split_condition": 54.4000015, "yes": 17, "no": 18, "missing": 18, "children": [{"nodeid": 17, "leaf": -0.0562051386}, {"nodeid": 18, "leaf": -0.00612596003}]}, {"nodeid": 10, "depth": 3, "split": "f4", "split_condition": 31052.9707, "yes": 19, "no": 20, "missing": 20, "children": [{"nodeid": 19, "leaf": 0.11189612}, {"nodeid": 20, "leaf": 0.0316140689}]}]}]}, {"nodeid": 2, "depth": 1, "split": "f7", "split_condition": 111.660004, "yes": 5, "no": 6, "missing": 6, "children": [{"nodeid": 5, "depth": 2, "split": "f5", "split_condition": 179.029999, "yes": 11, "no": 12, "missing": 12, "children": [{"nodeid": 11, "depth": 3, "split": "f8", "split_condition": 10163.8799, "yes": 21, "no": 22, "missing": 22, "children": [{"nodeid": 21, "leaf": 0.0160649698}, {"nodeid": 22, "leaf": -0.0567704849}]}, {"nodeid": 12, "depth": 3, "split": "f5", "split_condition": 180.986191, "yes": 23, "no": 24, "missing": 24, "children": [{"nodeid": 23, "leaf": 0.00809767935}, {"nodeid": 24, "leaf": 0.0622959845}]}]}, {"nodeid": 6, "depth": 2, "split": "f8", "split_condition": 21512.834, "yes": 13, "no": 14, "missing": 14, "children": [{"nodeid": 13, "leaf": 0.136759654}, {"nodeid": 14, "leaf": 0.0652421415}]}]}]}, {"nodeid": 0, "depth": 0, "split": "f7", "split_condition": 63.9099998, "yes": 1, "no": 2, "missing": 2, "children": [{"nodeid": 1, "depth": 1, "split": "f5", "split_condition": 180.986191, "yes": 3, "no": 4, "missing": 4, "children": [{"nodeid": 3, "depth": 2, "split": "f3", "split_condition": 27.0232277, "yes": 7, "no": 8, "missing": 8, "children": [{"nodeid": 7, "leaf": -0.0701315403}, {"nodeid": 8, "leaf": -0.0170558896}]}, {"nodeid": 4, "leaf": 0.0474480279}]}, {"nodeid": 2, "depth": 1, "split": "f5", "split_condition": 90.9948578, "yes": 5, "no": 6, "missing": 6, "children": [{"nodeid": 5, "depth": 2, "split": "f6", "split_condition": 475.589752, "yes": 9, "no": 10, "missing": 10, "children": [{"nodeid": 9, "depth": 3, "split": "f2", "split_condition": 50.0213585, "yes": 13, "no": 14, "missing": 14, "children": [{"nodeid": 13, "leaf": -0.0591173209}, {"nodeid": 14, "leaf": 0.0491473526}]}, {"nodeid": 10, "depth": 3, "split": "f5", "split_condition": 49.0400009, "yes": 15, "no": 16, "missing": 16, "children": [{"nodeid": 15, "leaf": -0.0464177988}, {"nodeid": 16, "leaf": 0.0932804868}]}]}, {"nodeid": 6, "depth": 2, "split": "f8", "split_condition": 10015.6396, "yes": 11, "no": 12, "missing": 12, "children": [{"nodeid": 11, "depth": 3, "split": "f3", "split_condition": 19.6982727, "yes": 17, "no": 18, "missing": 18, "children": [{"nodeid": 17, "leaf": 0.249181703}, {"nodeid": 18, "leaf": 0.0466413088}]}, {"nodeid": 12, "depth": 3, "split": "f7", "split_condition": 118.925972, "yes": 19, "no": 20, "missing": 20, "children": [{"nodeid": 19, "leaf": -0.0184480939}, {"nodeid": 20, "leaf": 0.0745978877}]}]}]}]}, {"nodeid": 0, "depth": 0, "split": "f5", "split_condition": 132.042511, "yes": 1, "no": 2, "missing": 2, "children": [{"nodeid": 1, "depth": 1, "split": "f6", "split_condition": 299.226685, "yes": 3, "no": 4, "missing": 4, "children": [{"nodeid": 3, "depth": 2, "split": "f4", "split_condition": 19535.4395, "yes": 7, "no": 8, "missing": 8, "children": [{"nodeid": 7, "depth": 3, "split": "f0", "split_condition": 245.600006, "yes": 15, "no": 16, "missing": 16, "children": [{"nodeid": 15, "leaf": -0.0573512502}, {"nodeid": 16, "leaf": 0.050789535}]}, {"nodeid": 8, "depth": 3, "split": "f7", "split_condition": 189.271454, "yes": 17, "no": 18, "missing": 18, "children": [{"nodeid": 17, "leaf": -0.0690930709}, {"nodeid": 18, "leaf": -0.00490209041}]}]}, {"nodeid": 4, "depth": 2, "split": "f5", "split_condition": 59.4099998, "yes": 9, "no": 10, "missing": 10, "children": [{"nodeid": 9, "depth": 3, "split": "f5", "split_condition": 49.0400009, "yes": 19, "no": 20, "missing": 20, "children": [{"nodeid": 19, "leaf": -0.0551907383}, {"nodeid": 20, "leaf": -0.0136010265}]}, {"nodeid": 10, "depth": 3, "split": "f5", "split_condition": 74.4400024, "yes": 21, "no": 22, "missing": 22, "children": [{"nodeid": 21, "leaf": 0.0256055929}, {"nodeid": 22, "leaf": 0.100604229}]}]}]}, {"nodeid": 2, "depth": 1, "split": "f7", "split_condition": 111.660004, "yes": 5, "no": 6, "missing": 6, "children": [{"nodeid": 5, "depth": 2, "split": "f5", "split_condition": 179.029999, "yes": 11, "no": 12, "missing": 12, "children": [{"nodeid": 11, "depth": 3, "split": "f8", "split_condition": 10163.8799, "yes": 23, "no": 24, "missing": 24, "children": [{"nodeid": 23, "leaf": 0.0209630001}, {"nodeid": 24, "leaf": -0.0518504567}]}, {"nodeid": 12, "depth": 3, "split": "f5", "split_condition": 180.986191, "yes": 25, "no": 26, "missing": 26, "children": [{"nodeid": 25, "leaf": 0.00954120327}, {"nodeid": 26, "leaf": 0.0610778667}]}]}, {"nodeid": 6, "depth": 2, "split": "f8", "split_condition": 21760.8594, "yes": 13, "no": 14, "missing": 14, "children": [{"nodeid": 13, "leaf": 0.131333143}, {"nodeid": 14, "leaf": 0.0633116215}]}]}]}, {"nodeid": 0, "depth": 0, "split": "f3", "split_condition": 30.1280766, "yes": 1, "no": 2, "missing": 2, "children": [{"nodeid": 1, "depth": 1, "split": "f7", "split_condition": 63.9099998, "yes": 3, "no": 4, "missing": 4, "children": [{"nodeid": 3, "depth": 2, "split": "f5", "split_condition": 179.029999, "yes": 5, "no": 6, "missing": 6, "children": [{"nodeid": 5, "leaf": -0.0685152262}, {"nodeid": 6, "leaf": 0.0113125192}]}, {"nodeid": 4, "depth": 2, "split": "f5", "split_condition": 128.902969, "yes": 7, "no": 8, "missing": 8, "children": [{"nodeid": 7, "depth": 3, "split": "f0", "split_condition": 699.109985, "yes": 9, "no": 10, "missing": 10, "children": [{"nodeid": 9, "leaf": -0.0410236716}, {"nodeid": 10, "leaf": 0.0378531851}]}, {"nodeid": 8, "depth": 3, "split": "f4", "split_condition": 19902.4707, "yes": 11, "no": 12, "missing": 12, "children": [{"nodeid": 11, "leaf": 0.198158458}, {"nodeid": 12, "leaf": 0.0261484291}]}]}]}, {"nodeid": 2, "leaf": 0.0741555393}]}, {"nodeid": 0, "depth": 0, "split": "f3", "split_condition": 30.1280766, "yes": 1, "no": 2, "missing": 2, "children": [{"nodeid": 1, "depth": 1, "split": "f2", "split_condition": 50.0213585, "yes": 3, "no": 4, "missing": 4, "children": [{"nodeid": 3, "depth": 2, "split": "f5", "split_condition": 90.9948578, "yes": 5, "no": 6, "missing": 6, "children": [{"nodeid": 5, "depth": 3, "split": "f6", "split_condition": 475.589752, "yes": 7, "no": 8, "missing": 8, "children": [{"nodeid": 7, "leaf": -0.0675502196}, {"nodeid": 8, "leaf": 0.0029966617}]}, {"nodeid": 6, "depth": 3, "split": "f6", "split_condition": 216.776947, "yes": 9, "no": 10, "missing": 10, "children": [{"nodeid": 9, "leaf": -0.0286416803}, {"nodeid": 10, "leaf": 0.0829460397}]}]}, {"nodeid": 4, "leaf": 0.0691259727}]}, {"nodeid": 2, "leaf": 0.0734082907}]}, {"nodeid": 0, "depth": 0, "split": "f7", "split_condition": 63.9099998, "yes": 1, "no": 2, "missing": 2, "children": [{"nodeid": 1, "depth": 1, "split": "f5", "split_condition": 180.986191, "yes": 3, "no": 4, "missing": 4, "children": [{"nodeid": 3, "depth": 2, "split": "f3", "split_condition": 27.0232277, "yes": 7, "no": 8, "missing": 8, "children": [{"nodeid": 7, "leaf": -0.0681251884}, {"nodeid": 8, "leaf": -0.0193424337}]}, {"nodeid": 4, "leaf": 0.0438789204}]}, {"nodeid": 2, "depth": 1, "split": "f4", "split_condition": 19902.4707, "yes": 5, "no": 6, "missing": 6, "children": [{"nodeid": 5, "depth": 2, "split": "f5", "split_condition": 82.9245911, "yes": 9, "no": 10, "missing": 10, "children": [{"nodeid": 9, "depth": 3, "split": "f2", "split_condition": 44.1475105, "yes": 13, "no": 14, "missing": 14, "children": [{"nodeid": 13, "leaf": -0.0386453681}, {"nodeid": 14, "leaf": 0.0235118996}]}, {"nodeid": 10, "depth": 3, "split": "f1", "split_condition": 43.2999992, "yes": 15, "no": 16, "missing": 16, "children": [{"nodeid": 15, "leaf": 0.194532469}, {"nodeid": 16, "leaf": 0.0472819656}]}]}, {"nodeid": 6, "depth": 2, "split": "f8", "split_condition": 24009.9238, "yes": 11, "no": 12, "missing": 12, "children": [{"nodeid": 11, "depth": 3, "split": "f5", "split_condition": 154.429993, "yes": 17, "no": 18, "missing": 18, "children": [{"nodeid": 17, "leaf": -0.0394125134}, {"nodeid": 18, "leaf": 0.0386178456}]}, {"nodeid": 12, "leaf": 0.070709087}]}]}]}, {"nodeid": 0, "depth": 0, "split": "f1", "split_condition": 50.4747086, "yes": 1, "no": 2, "missing": 2, "children": [{"nodeid": 1, "depth": 1, "split": "f7", "split_condition": 77.7600021, "yes": 3, "no": 4, "missing": 4, "children": [{"nodeid": 3, "depth": 2, "split": "f3", "split_condition": 29.2476177, "yes": 5, "no": 6, "missing": 6, "children": [{"nodeid": 5, "depth": 3, "split": "f5", "split_condition": 179.029999, "yes": 9, "no": 10, "missing": 10, "children": [{"nodeid": 9, "leaf": -0.0680278167}, {"nodeid": 10, "leaf": 0.00133028137}]}, {"nodeid": 6, "leaf": 0.022802284}]}, {"nodeid": 4, "depth": 2, "split": "f4", "split_condition": 16183.96, "yes": 7, "no": 8, "missing": 8, "children": [{"nodeid": 7, "depth": 3, "split": "f5", "split_condition": 82.3399963, "yes": 11, "no": 12, "missing": 12, "children": [{"nodeid": 11, "leaf": -0.0137681477}, {"nodeid": 12, "leaf": 0.204970777}]}, {"nodeid": 8, "depth": 3, "split": "f5", "split_condition": 116.680466, "yes": 13, "no": 14, "missing": 14, "children": [{"nodeid": 13, "leaf": -0.0381111838}, {"nodeid": 14, "leaf": 0.0401695855}]}]}]}, {"nodeid": 2, "leaf": 0.0711910352}]}, {"nodeid": 0, "depth": 0, "split": "f5", "split_condition": 145.339996, "yes": 1, "no": 2, "missing": 2, "children": [{"nodeid": 1, "depth": 1, "split": "f7", "split_condition": 199.779999, "yes": 3, "no": 4, "missing": 4, "children": [{"nodeid": 3, "depth": 2, "split": "f4", "split_condition": 19535.4395, "yes": 7, "no": 8, "missing": 8, "children": [{"nodeid": 7, "depth": 3, "split": "f6", "split_condition": 119.31144, "yes": 13, "no": 14, "missing": 14, "children": [{"nodeid": 13, "leaf": -0.0539860986}, {"nodeid": 14, "leaf": 0.0474269725}]}, {"nodeid": 8, "depth": 3, "split": "f6", "split_condition": 281.664154, "yes": 15, "no": 16, "missing": 16, "children": [{"nodeid": 15, "leaf": -0.0657913163}, {"nodeid": 16, "leaf": 0.00399851473}]}]}, {"nodeid": 4, "depth": 2, "split": "f5", "split_condition": 59.4099998, "yes": 9, "no": 10, "missing": 10, "children": [{"nodeid": 9, "depth": 3, "split": "f5", "split_condition": 50.0499992, "yes": 17, "no": 18, "missing": 18, "children": [{"nodeid": 17, "leaf": -0.0505102575}, {"nodeid": 18, "leaf": -0.0137142492}]}, {"nodeid": 10, "depth": 3, "split": "f5", "split_condition": 72.3600006, "yes": 19, "no": 20, "missing": 20, "children": [{"nodeid": 19, "leaf": 0.0200748015}, {"nodeid": 20, "leaf": 0.0920171067}]}]}]}, {"nodeid": 2, "depth": 1, "split": "f7", "split_condition": 100.319519, "yes": 5, "no": 6, "missing": 6, "children": [{"nodeid": 5, "depth": 2, "split": "f5", "split_condition": 179.029999, "yes": 11, "no": 12, "missing": 12, "children": [{"nodeid": 11, "depth": 3, "split": "f8", "split_condition": 13572.1602, "yes": 21, "no": 22, "missing": 22, "children": [{"nodeid": 21, "leaf": 0.00487337774}, {"nodeid": 22, "leaf": -0.0589074343}]}, {"nodeid": 12, "depth": 3, "split": "f8", "split_condition": 16910.123, "yes": 23, "no": 24, "missing": 24, "children": [{"nodeid": 23, "leaf": 0.0601342656}, {"nodeid": 24, "leaf": 0.0084410077}]}]}, {"nodeid": 6, "leaf": 0.0951664448}]}]}, {"nodeid": 0, "depth": 0, "split": "f2", "split_condition": 50.0213585, "yes": 1, "no": 2, "missing": 2, "children": [{"nodeid": 1, "depth": 1, "split": "f3", "split_condition": 30.1280766, "yes": 3, "no": 4, "missing": 4, "children": [{"nodeid": 3, "depth": 2, "split": "f0", "split_condition": 333.519989, "yes": 5, "no": 6, "missing": 6, "children": [{"nodeid": 5, "depth": 3, "split": "f6", "split_condition": 200.643051, "yes": 7, "no": 8, "missing": 8, "children": [{"nodeid": 7, "leaf": -0.0477731824}, {"nodeid": 8, "leaf": 0.0676399097}]}, {"nodeid": 6, "depth": 3, "split": "f4", "split_condition": 16183.96, "yes": 9, "no": 10, "missing": 10, "children": [{"nodeid": 9, "leaf": 0.118342452}, {"nodeid": 10, "leaf": -0.00453494582}]}]}, {"nodeid": 4, "leaf": 0.0665854216}]}, {"nodeid": 2, "leaf": 0.0710339695}]}, {"nodeid": 0, "depth": 0, "split": "f3", "split_condition": 30.1280766, "yes": 1, "no": 2, "missing": 2, "children": [{"nodeid": 1, "depth": 1, "split": "f7", "split_condition": 63.9099998, "yes": 3, "no": 4, "missing": 4, "children": [{"nodeid": 3, "depth": 2, "split": "f5", "split_condition": 179.029999, "yes": 5, "no": 6, "missing": 6, "children": [{"nodeid": 5, "leaf": -0.064779669}, {"nodeid": 6, "leaf": 0.0117332488}]}, {"nodeid": 4, "depth": 2, "split": "f4", "split_condition": 19902.4707, "yes": 7, "no": 8, "missing": 8, "children": [{"nodeid": 7, "depth": 3, "split": "f5", "split_condition": 90.9948578, "yes": 9, "no": 10, "missing": 10, "children": [{"nodeid": 9, "leaf": -0.0124279615}, {"nodeid": 10, "leaf": 0.175105974}]}, {"nodeid": 8, "depth": 3, "split": "f8", "split_condition": 24009.9238, "yes": 11, "no": 12, "missing": 12, "children": [{"nodeid": 11, "leaf": -0.0261653177}, {"nodeid": 12, "leaf": 0.0619329624}]}]}]}, {"nodeid": 2, "leaf": 0.07039354}]}, {"nodeid": 0, "depth": 0, "split": "f1", "split_condition": 50.4747086, "yes": 1, "no": 2, "missing": 2, "children": [{"nodeid": 1, "depth": 1, "split": "f7", "split_condition": 65.7900009, "yes": 3, "no": 4, "missing": 4, "children": [{"nodeid": 3, "depth": 2, "split": "f5", "split_condition": 178.100006, "yes": 5, "no": 6, "missing": 6, "children": [{"nodeid": 5, "leaf": -0.0631927773}, {"nodeid": 6, "leaf": 0.00497495383}]}, {"nodeid": 4, "depth": 2, "split": "f4", "split_condition": 18012.2891, "yes": 7, "no": 8, "missing": 8, "children": [{"nodeid": 7, "depth": 3, "split": "f5", "split_condition": 82.9245911, "yes": 9, "no": 10, "missing": 10, "children": [{"nodeid": 9, "leaf": -0.0157412495}, {"nodeid": 10, "leaf": 0.18112132}]}, {"nodeid": 8, "depth": 3, "split": "f5", "split_condition": 148.75, "yes": 11, "no": 12, "missing": 12, "children": [{"nodeid": 11, "leaf": -0.0308317803}, {"nodeid": 12, "leaf": 0.0403931178}]}]}]}, {"nodeid": 2, "leaf": 0.0690359995}]}, {"nodeid": 0, "depth": 0, "split": "f5", "split_condition": 58.5075531, "yes": 1, "no": 2, "missing": 2, "children": [{"nodeid": 1, "depth": 1, "split": "f2", "split_condition": 43.4647484, "yes": 3, "no": 4, "missing": 4, "children": [{"nodeid": 3, "leaf": -0.0589044802}, {"nodeid": 4, "leaf": -0.0143726068}]}, {"nodeid": 2, "depth": 1, "split": "f6", "split_condition": 294.10437, "yes": 5, "no": 6, "missing": 6, "children": [{"nodeid": 5, "depth": 2, "split": "f4", "split_condition": 21431.2754, "yes": 7, "no": 8, "missing": 8, "children": [{"nodeid": 7, "depth": 3, "split": "f7", "split_condition": 63.9099998, "yes": 11, "no": 12, "missing": 12, "children": [{"nodeid": 11, "leaf": -0.0398817062}, {"nodeid": 12, "leaf": 0.100028694}]}, {"nodeid": 8, "depth": 3, "split": "f5", "split_condition": 180.986191, "yes": 13, "no": 14, "missing": 14, "children": [{"nodeid": 13, "leaf": -0.0444896296}, {"nodeid": 14, "leaf": 0.0567994528}]}]}, {"nodeid": 6, "depth": 2, "split": "f5", "split_condition": 78.1999969, "yes": 9, "no": 10, "missing": 10, "children": [{"nodeid": 9, "depth": 3, "split": "f6", "split_condition": 363.187073, "yes": 15, "no": 16, "missing": 16, "children": [{"nodeid": 15, "leaf": -0.0196090266}, {"nodeid": 16, "leaf": 0.0477970205}]}, {"nodeid": 10, "leaf": 0.0975219011}]}]}]}, {"nodeid": 0, "depth": 0, "split": "f5", "split_condition": 78.1999969, "yes": 1, "no": 2, "missing": 2, "children": [{"nodeid": 1, "depth": 1, "split": "f6", "split_condition": 598.771606, "yes": 3, "no": 4, "missing": 4, "children": [{"nodeid": 3, "depth": 2, "split": "f3", "split_condition": 27.0232277, "yes": 7, "no": 8, "missing": 8, "children": [{"nodeid": 7, "depth": 3, "split": "f2", "split_condition": 46, "yes": 13, "no": 14, "missing": 14, "children": [{"nodeid": 13, "leaf": -0.061311692}, {"nodeid": 14, "leaf": -0.00850497093}]}, {"nodeid": 8, "leaf": 0.000417056435}]}, {"nodeid": 4, "leaf": 0.0245855022}]}, {"nodeid": 2, "depth": 1, "split": "f7", "split_condition": 135.380859, "yes": 5, "no": 6, "missing": 6, "children": [{"nodeid": 5, "depth": 2, "split": "f5", "split_condition": 180.986191, "yes": 9, "no": 10, "missing": 10, "children": [{"nodeid": 9, "depth": 3, "split": "f7", "split_condition": 62.6399994, "yes": 15, "no": 16, "missing": 16, "children": [{"nodeid": 15, "leaf": -0.060396757}, {"nodeid": 16, "leaf": 0.00497463532}]}, {"nodeid": 10, "leaf": 0.057368692}]}, {"nodeid": 6, "depth": 2, "split": "f4", "split_condition": 29668.4902, "yes": 11, "no": 12, "missing": 12, "children": [{"nodeid": 11, "leaf": 0.120883651}, {"nodeid": 12, "depth": 3, "split": "f5", "split_condition": 105.260002, "yes": 17, "no": 18, "missing": 18, "children": [{"nodeid": 17, "leaf": -0.0358745828}, {"nodeid": 18, "leaf": 0.073076807}]}]}]}]}, {"nodeid": 0, "depth": 0, "split": "f2", "split_condition": 50.0213585, "yes": 1, "no": 2, "missing": 2, "children": [{"nodeid": 1, "depth": 1, "split": "f3", "split_condition": 30.1280766, "yes": 3, "no": 4, "missing": 4, "children": [{"nodeid": 3, "depth": 2, "split": "f7", "split_condition": 63.9099998, "yes": 5, "no": 6, "missing": 6, "children": [{"nodeid": 5, "depth": 3, "split": "f1", "split_condition": 45.1321259, "yes": 7, "no": 8, "missing": 8, "children": [{"nodeid": 7, "leaf": -0.0584787503}, {"nodeid": 8, "leaf": -0.0113890721}]}, {"nodeid": 6, "depth": 3, "split": "f4", "split_condition": 19902.4707, "yes": 9, "no": 10, "missing": 10, "children": [{"nodeid": 9, "leaf": 0.0660922304}, {"nodeid": 10, "leaf": -0.0201039854}]}]}, {"nodeid": 4, "leaf": 0.0632547885}]}, {"nodeid": 2, "leaf": 0.0686330423}]}, {"nodeid": 0, "depth": 0, "split": "f5", "split_condition": 145.339996, "yes": 1, "no": 2, "missing": 2, "children": [{"nodeid": 1, "depth": 1, "split": "f6", "split_condition": 279.079132, "yes": 3, "no": 4, "missing": 4, "children": [{"nodeid": 3, "depth": 2, "split": "f1", "split_condition": 49.0986061, "yes": 7, "no": 8, "missing": 8, "children": [{"nodeid": 7, "depth": 3, "split": "f7", "split_condition": 173.039993, "yes": 13, "no": 14, "missing": 14, "children": [{"nodeid": 13, "leaf": -0.060098581}, {"nodeid": 14, "leaf": 0.0143996878}]}, {"nodeid": 8, "leaf": 0.0192919355}]}, {"nodeid": 4, "depth": 2, "split": "f5", "split_condition": 72.3600006, "yes": 9, "no": 10, "missing": 10, "children": [{"nodeid": 9, "depth": 3, "split": "f5", "split_condition": 54.4000015, "yes": 15, "no": 16, "missing": 16, "children": [{"nodeid": 15, "leaf": -0.0484036915}, {"nodeid": 16, "leaf": 0.00683335587}]}, {"nodeid": 10, "depth": 3, "split": "f5", "split_condition": 82.9245911, "yes": 17, "no": 18, "missing": 18, "children": [{"nodeid": 17, "leaf": 0.0164775476}, {"nodeid": 18, "leaf": 0.0866081789}]}]}]}, {"nodeid": 2, "depth": 1, "split": "f7", "split_condition": 107.230003, "yes": 5, "no": 6, "missing": 6, "children": [{"nodeid": 5, "depth": 2, "split": "f8", "split_condition": 14156.8799, "yes": 11, "no": 12, "missing": 12, "children": [{"nodeid": 11, "depth": 3, "split": "f7", "split_condition": 63.2900009, "yes": 19, "no": 20, "missing": 20, "children": [{"nodeid": 19, "leaf": -0.0217319652}, {"nodeid": 20, "leaf": 0.121551022}]}, {"nodeid": 12, "depth": 3, "split": "f5", "split_condition": 179.589996, "yes": 21, "no": 22, "missing": 22, "children": [{"nodeid": 21, "leaf": -0.0569440387}, {"nodeid": 22, "leaf": 0.0179896969}]}]}, {"nodeid": 6, "leaf": 0.093057014}]}]}, {"nodeid": 0, "depth": 0, "split": "f1", "split_condition": 50.4747086, "yes": 1, "no": 2, "missing": 2, "children": [{"nodeid": 1, "depth": 1, "split": "f2", "split_condition": 50.0213585, "yes": 3, "no": 4, "missing": 4, "children": [{"nodeid": 3, "depth": 2, "split": "f3", "split_condition": 30.1280766, "yes": 5, "no": 6, "missing": 6, "children": [{"nodeid": 5, "depth": 3, "split": "f7", "split_condition": 63.9099998, "yes": 7, "no": 8, "missing": 8, "children": [{"nodeid": 7, "leaf": -0.0566716008}, {"nodeid": 8, "leaf": -0.00491272472}]}, {"nodeid": 6, "leaf": 0.0559722222}]}, {"nodeid": 4, "leaf": 0.0614556149}]}, {"nodeid": 2, "leaf": 0.0664255172}]}, {"nodeid": 0, "depth": 0, "split": "f1", "split_condition": 50.4747086, "yes": 1, "no": 2, "missing": 2, "children": [{"nodeid": 1, "depth": 1, "split": "f2", "split_condition": 50.0213585, "yes": 3, "no": 4, "missing": 4, "children": [{"nodeid": 3, "depth": 2, "split": "f4", "split_condition": 24604.2793, "yes": 5, "no": 6, "missing": 6, "children": [{"nodeid": 5, "depth": 3, "split": "f7", "split_condition": 62.6399994, "yes": 7, "no": 8, "missing": 8, "children": [{"nodeid": 7, "leaf": -0.0505728573}, {"nodeid": 8, "leaf": 0.0500061214}]}, {"nodeid": 6, "depth": 3, "split": "f4", "split_condition": 40575.5273, "yes": 9, "no": 10, "missing": 10, "children": [{"nodeid": 9, "leaf": -0.0388154984}, {"nodeid": 10, "leaf": 0.0463609695}]}]}, {"nodeid": 4, "leaf": 0.0604794361}]}, {"nodeid": 2, "leaf": 0.0655419528}]}, {"nodeid": 0, "depth": 0, "split": "f5", "split_condition": 58.5075531, "yes": 1, "no": 2, "missing": 2, "children": [{"nodeid": 1, "leaf": -0.0515693426}, {"nodeid": 2, "depth": 1, "split": "f6", "split_condition": 299.226685, "yes": 3, "no": 4, "missing": 4, "children": [{"nodeid": 3, "depth": 2, "split": "f5", "split_condition": 128.902969, "yes": 5, "no": 6, "missing": 6, "children": [{"nodeid": 5, "depth": 3, "split": "f8", "split_condition": 6578.75, "yes": 9, "no": 10, "missing": 10, "children": [{"nodeid": 9, "leaf": 0.0409062505}, {"nodeid": 10, "leaf": -0.0491585806}]}, {"nodeid": 6, "depth": 3, "split": "f7", "split_condition": 111.660004, "yes": 11, "no": 12, "missing": 12, "children": [{"nodeid": 11, "leaf": 0.00439239573}, {"nodeid": 12, "leaf": 0.0798554197}]}]}, {"nodeid": 4, "depth": 2, "split": "f5", "split_condition": 77.4300003, "yes": 7, "no": 8, "missing": 8, "children": [{"nodeid": 7, "depth": 3, "split": "f7", "split_condition": 269.144653, "yes": 13, "no": 14, "missing": 14, "children": [{"nodeid": 13, "leaf": -0.0111685582}, {"nodeid": 14, "leaf": 0.0485435948}]}, {"nodeid": 8, "leaf": 0.093197979}]}]}]}, {"nodeid": 0, "depth": 0, "split": "f5", "split_condition": 128.902969, "yes": 1, "no": 2, "missing": 2, "children": [{"nodeid": 1, "depth": 1, "split": "f6", "split_condition": 279.079132, "yes": 3, "no": 4, "missing": 4, "children": [{"nodeid": 3, "depth": 2, "split": "f2", "split_condition": 48.5857201, "yes": 7, "no": 8, "missing": 8, "children": [{"nodeid": 7, "depth": 3, "split": "f2", "split_condition": 3.37962222, "yes": 13, "no": 14, "missing": 14, "children": [{"nodeid": 13, "leaf": -0.00254914933}, {"nodeid": 14, "leaf": -0.0569994897}]}, {"nodeid": 8, "leaf": 0.0116843535}]}, {"nodeid": 4, "depth": 2, "split": "f5", "split_condition": 58.5075531, "yes": 9, "no": 10, "missing": 10, "children": [{"nodeid": 9, "depth": 3, "split": "f5", "split_condition": 47.7700005, "yes": 15, "no": 16, "missing": 16, "children": [{"nodeid": 15, "leaf": -0.0498658493}, {"nodeid": 16, "leaf": -0.0109435497}]}, {"nodeid": 10, "depth": 3, "split": "f8", "split_condition": 19232.8008, "yes": 17, "no": 18, "missing": 18, "children": [{"nodeid": 17, "leaf": 0.0791080743}, {"nodeid": 18, "leaf": 0.0138304494}]}]}]}, {"nodeid": 2, "depth": 1, "split": "f7", "split_condition": 111.660004, "yes": 5, "no": 6, "missing": 6, "children": [{"nodeid": 5, "depth": 2, "split": "f8", "split_condition": 14056.4404, "yes": 11, "no": 12, "missing": 12, "children": [{"nodeid": 11, "depth": 3, "split": "f7", "split_condition": 63.9099998, "yes": 19, "no": 20, "missing": 20, "children": [{"nodeid": 19, "leaf": -0.0208995081}, {"nodeid": 20, "leaf": 0.142681628}]}, {"nodeid": 12, "depth": 3, "split": "f5", "split_condition": 179.589996, "yes": 21, "no": 22, "missing": 22, "children": [{"nodeid": 21, "leaf": -0.0569183417}, {"nodeid": 22, "leaf": 0.0168718398}]}]}, {"nodeid": 6, "leaf": 0.0867711976}]}]}, {"nodeid": 0, "depth": 0, "split": "f5", "split_condition": 78.1999969, "yes": 1, "no": 2, "missing": 2, "children": [{"nodeid": 1, "depth": 1, "split": "f1", "split_condition": 48.2900009, "yes": 3, "no": 4, "missing": 4, "children": [{"nodeid": 3, "depth": 2, "split": "f3", "split_condition": 27.0232277, "yes": 7, "no": 8, "missing": 8, "children": [{"nodeid": 7, "depth": 3, "split": "f7", "split_condition": 318.13681, "yes": 13, "no": 14, "missing": 14, "children": [{"nodeid": 13, "leaf": -0.060368225}, {"nodeid": 14, "leaf": -0.00926192105}]}, {"nodeid": 8, "leaf": 0.00155534619}]}, {"nodeid": 4, "leaf": 0.0190893188}]}, {"nodeid": 2, "depth": 1, "split": "f0", "split_condition": 333.519989, "yes": 5, "no": 6, "missing": 6, "children": [{"nodeid": 5, "depth": 2, "split": "f7", "split_condition": 128.460007, "yes": 9, "no": 10, "missing": 10, "children": [{"nodeid": 9, "depth": 3, "split": "f5", "split_condition": 179.029999, "yes": 15, "no": 16, "missing": 16, "children": [{"nodeid": 15, "leaf": -0.0376820676}, {"nodeid": 16, "leaf": 0.0461505726}]}, {"nodeid": 10, "leaf": 0.0616674758}]}, {"nodeid": 6, "depth": 2, "split": "f8", "split_condition": 19929.3301, "yes": 11, "no": 12, "missing": 12, "children": [{"nodeid": 11, 